{"learner":{"attributes":{"scikit_learn":"{\"_estimator_type\": \"classifier\"}"},"feature_names":[],"feature_types":[],"gradient_booster":{"model":{"cats":{"enc":[],"feature_segments":[],"sorted_idx":[]},"gbtree_model_param":{"num_parallel_tree":"1","num_trees":"100"},"iteration_indptr":[0,1,2,3,4,5,6,7,8,9,10,11,12,13,14,15,16,17,18,19,20,21,22,23,24,25,26,27,28,29,30,31,32,33,34,35,36,37,38,39,40,41,42,43,44,45,46,47,48,49,50,51,52,53,54,55,56,57,58,59,60,61,62,63,64,65,66,67,68,69,70,71,72,73,74,75,76,77,78,79,80,81,82,83,84,85,86,87,88,89,90,91,92,93,94,95,96,97,98,99,100],"tree_info":[0,0,0,0,0,0,0,0,0,0,0,0,0,0,0,0,0,0,0,0,0,0,0,0,0,0,0,0,0,0,0,0,0,0,0,0,0,0,0,0,0,0,0,0,0,0,0,0,0,0,0,0,0,0,0,0,0,0,0,0,0,0,0,0,0,0,0,0,0,0,0,0,0,0,0,0,0,0,0,0,0,0,0,0,0,0,0,0,0,0,0,0,0,0,0,0,0,0,0,0],"trees":[{"base_weights":[-0E0,-1.5443038E0,1.6712328E0,5E-2,-1.68E-1,1.8769231E-1,-0E0,5E-2,-5E-2],"categories":[],"categories_nodes":[],"categories_segments":[],"categories_sizes":[],"default_left":[0,0,0,0,0,0,0,0,0],"id":0,"left_children":[1,3,5,-1,-1,-1,7,-1,-1],"loss_changes":[9.807387E1,6.318733E0,6.273552E0,0E0,0E0,0E0,1E0,0E0,0E0],"parents":[2147483647,0,0,1,1,2,2,6,6],"right_children":[2,4,6,-1,-1,-1,8,-1,-1],"split_conditions":[-2.803248E-1,-8.2632667E-1,9.8818517E-1,5E-2,-1.68E-1,1.8769231E-1,-2.106357E-1,5E-2,-5E-2],"split_indices":[8,0,0,0,0,0,8,0,0],"split_type":[0,0,0,0,0,0,0,0,0],"sum_hessian":[3.6E1,1.875E1,1.725E1,1E0,1.775E1,1.525E1,2E0,1E0,1E0],"tree_param":{"num_deleted":"0","num_feature":"15","num_nodes":"9","size_leaf_vector":"1"}},{"base_weights":[1.9347098E-3,-1.4051149E0,1.526123E0,-1.5301026E-1,2.4323512E-2,1.7153914E-1,-0E0],"categories":[],"categories_nodes":[],"categories_segments":[],"categories_sizes":[],"default_left":[0,0,0,0,0,0,0],"id":1,"left_children":[1,3,5,-1,-1,-1,-1],"loss_changes":[8.093718E1,4.415325E0,5.232525E0,0E0,0E0,0E0,0E0],"parents":[2147483647,0,0,1,1,2,2],"right_children":[2,4,6,-1,-1,-1,-1],"split_conditions":[-2.803248E-1,8.414287E-1,9.8818517E-1,-1.5301026E-1,2.4323512E-2,1.7153914E-1,-0E0],"split_indices":[8,10,0,0,0,0,0],"split_type":[0,0,0,0,0,0,0],"sum_hessian":[3.5739944E1,1.8624718E1,1.7115227E1,1.7378698E1,1.24602E0,1.5116476E1,1.9987506E0],"tree_param":{"num_deleted":"0","num_feature":"15","num_nodes":"7","size_leaf_vector":"1"}},{"base_weights":[3.1037636E-3,-1.2930806E0,1.4115874E0,2.4513392E-2,-1.4123901E0,1.5905155E-1,-0E0,-6.4140165E-1,-1.4915481E-1,-4.604692E-3,-9.476209E-2],"categories":[],"categories_nodes":[],"categories_segments":[],"categories_sizes":[],"default_left":[0,0,0,0,0,0,0,0,0,0,0],"id":2,"left_children":[1,3,5,-1,7,-1,-1,9,-1,-1,-1],"loss_changes":[6.7687614E1,3.889862E0,4.4874954E0,0E0,1.4593124E-1,0E0,0E0,5.82904E-1,0E0,0E0,0E0],"parents":[2147483647,0,0,1,1,2,2,4,4,7,7],"right_children":[2,4,6,-1,8,-1,-1,10,-1,-1,-1],"split_conditions":[-2.803248E-1,-8.1780666E-1,9.8818517E-1,2.4513392E-2,-7.1057314E-1,1.5905155E-1,-0E0,1.3828013E0,-1.4915481E-1,-4.604692E-3,-9.476209E-2],"split_indices":[8,0,0,0,4,0,0,0,0,0,0],"split_type":[0,0,0,0,0,0,0,0,0,0,0],"sum_hessian":[3.5076008E1,1.830886E1,1.6767149E1,1.2419717E0,1.7066889E1,1.4768399E1,1.9987506E0,2.4366853E0,1.4630203E1,1.2183427E0,1.2183427E0],"tree_param":{"num_deleted":"0","num_feature":"15","num_nodes":"11","size_leaf_vector":"1"}},{"base_weights":[1.2330671E-3,-1.2040422E0,1.3184744E0,-1.3209274E0,2.553226E-2,1.491054E-1,-0E0,-1.4960651E-1,-8.3726853E-1,1.4929566E-2,-1.3074379E-1],"categories":[],"categories_nodes":[],"categories_segments":[],"categories_sizes":[],"default_left":[0,0,0,0,0,0,0,0,0,0,0],"id":3,"left_children":[1,3,5,7,-1,-1,-1,-1,9,-1,-1],"loss_changes":[5.7381645E1,3.5567627E0,3.9293766E0,2.4131584E-1,0E0,0E0,0E0,0E0,3.4233565E0,0E0,0E0],"parents":[2147483647,0,0,1,1,2,2,3,3,8,8],"right_children":[2,4,6,8,-1,-1,-1,-1,10,-1,-1],"split_conditions":[-2.803248E-1,8.414287E-1,9.8818517E-1,-5.1793694E-1,2.553226E-2,1.491054E-1,-0E0,-1.4960651E-1,-1.790159E-1,1.4929566E-2,-1.3074379E-1],"split_indices":[8,10,0,8,0,0,0,0,1,0,0],"split_type":[0,0,0,0,0,0,0,0,0,0,0],"sum_hessian":[3.4142857E1,1.7874046E1,1.626881E1,1.6636442E1,1.2376039E0,1.427006E1,1.9987506E0,1.0676981E1,5.959462E0,2.1437206E0,3.8157413E0],"tree_param":{"num_deleted":"0","num_feature":"15","num_nodes":"11","size_leaf_vector":"1"}},{"base_weights":[-1.3291857E-3,-1.1292132E0,1.2408527E0,2.5688833E-2,-1.2439173E0,1.4099109E-1,-0E0,-1.4128326E-1,-7.839773E-1,1.38799595E-2,-1.2360968E-1],"categories":[],"categories_nodes":[],"categories_segments":[],"categories_sizes":[],"default_left":[0,0,0,0,0,0,0,0,0,0,0],"id":4,"left_children":[1,3,5,-1,7,-1,-1,-1,9,-1,-1],"loss_changes":[4.907344E1,3.2381916E0,3.4967976E0,0E0,2.2285652E-1,0E0,0E0,0E0,3.028039E0,0E0,0E0],"parents":[2147483647,0,0,1,1,2,2,4,4,8,8],"right_children":[2,4,6,-1,8,-1,-1,-1,10,-1,-1],"split_conditions":[-2.803248E-1,-8.1780666E-1,9.8818517E-1,2.5688833E-2,-5.1793694E-1,1.4099109E-1,-0E0,-1.4128326E-1,-1.790159E-1,1.38799595E-2,-1.2360968E-1],"split_indices":[8,0,0,0,8,0,0,0,1,0,0],"split_type":[0,0,0,0,0,0,0,0,0,0,0],"sum_hessian":[3.3026405E1,1.7357225E1,1.5669177E1,1.2318466E0,1.612538E1,1.3670427E1,1.9987506E0,1.0278704E1,5.846676E0,2.1505005E0,3.6961753E0],"tree_param":{"num_deleted":"0","num_feature":"15","num_nodes":"11","size_leaf_vector":"1"}},{"base_weights":[-3.6316372E-3,-1.0647923E0,1.1747406E0,-1.2718351E0,-1.5123034E-1,1.3423742E-1,-0E0,-4.874829E-1,-1.3805993E-1,8.958254E-2,-9.721431E-2,4.1860784E-3,-8.0012925E-2],"categories":[],"categories_nodes":[],"categories_segments":[],"categories_sizes":[],"default_left":[0,0,0,0,0,0,0,0,0,0,0,0,0],"id":5,"left_children":[1,3,5,7,9,-1,-1,11,-1,-1,-1,-1,-1],"loss_changes":[4.2234886E1,3.1688042E0,3.1519127E0,5.513344E-1,4.668452E0,0E0,0E0,5.785772E-1,0E0,0E0,0E0,0E0,0E0],"parents":[2147483647,0,0,1,1,2,2,3,3,4,4,7,7],"right_children":[2,4,6,8,10,-1,-1,12,-1,-1,-1,-1,-1],"split_conditions":[-2.803248E-1,9.412508E-1,9.8818517E-1,-7.1057314E-1,3.0668536E-1,1.3423742E-1,-0E0,1.1795262E0,-1.3805993E-1,8.958254E-2,-9.721431E-2,4.1860784E-3,-8.0012925E-2],"split_indices":[8,4,0,4,2,0,0,1,0,0,0,0,0],"split_type":[0,0,0,0,0,0,0,0,0,0,0,0,0],"sum_hessian":[3.1775629E1,1.677006E1,1.5005569E1,1.3351911E1,3.4181478E0,1.3006819E1,1.9987506E0,2.2936058E0,1.1058305E1,1.4620636E0,1.9560843E0,1.1732597E0,1.1203461E0],"tree_param":{"num_deleted":"0","num_feature":"15","num_nodes":"13","size_leaf_vector":"1"}},{"base_weights":[-6.0265264E-3,-1.009047E0,1.117361E0,-1.210018E0,-1.4076565E-1,1.2851846E-1,-0E0,-4.661967E-1,-1.3157843E-1,8.405033E-2,-9.314578E-2,-7.763178E-2,4.851852E-3],"categories":[],"categories_nodes":[],"categories_segments":[],"categories_sizes":[],"default_left":[0,0,0,0,0,0,0,0,0,0,0,0,0],"id":6,"left_children":[1,3,5,7,9,-1,-1,11,-1,-1,-1,-1,-1],"loss_changes":[3.6557373E1,2.8200912E0,2.8702374E0,4.710312E-1,4.1600394E0,0E0,0E0,5.588038E-1,0E0,0E0,0E0,0E0,0E0],"parents":[2147483647,0,0,1,1,2,2,3,3,4,4,7,7],"right_children":[2,4,6,8,10,-1,-1,12,-1,-1,-1,-1,-1],"split_conditions":[-2.803248E-1,9.412508E-1,9.8818517E-1,-7.1057314E-1,3.0668536E-1,1.2851846E-1,-0E0,-9.2030257E-1,-1.3157843E-1,8.405033E-2,-9.314578E-2,-7.763178E-2,4.851852E-3],"split_indices":[8,4,0,4,2,0,0,4,0,0,0,0,0],"split_type":[0,0,0,0,0,0,0,0,0,0,0,0,0],"sum_hessian":[3.0443476E1,1.6137148E1,1.4306328E1,1.27844925E1,3.3526566E0,1.2307577E1,1.9987506E0,2.2647839E0,1.0519709E1,1.4679263E0,1.8847303E0,1.0961158E0,1.1686679E0],"tree_param":{"num_deleted":"0","num_feature":"15","num_nodes":"13","size_leaf_vector":"1"}},{"base_weights":[-8.35446E-3,-9.602314E-1,1.0667179E0,-1.1562624E0,-1.3174671E-1,1.236012E-1,-0E0,-4.4623196E-1,-1.260404E-1,7.903295E-2,-8.942921E-2,-7.471995E-2,4.587385E-3],"categories":[],"categories_nodes":[],"categories_segments":[],"categories_sizes":[],"default_left":[0,0,0,0,0,0,0,0,0,0,0,0,0],"id":7,"left_children":[1,3,5,7,9,-1,-1,11,-1,-1,-1,-1,-1],"loss_changes":[3.1791435E1,2.522975E0,2.6353054E0,4.130478E-1,3.7165E0,0E0,0E0,5.134813E-1,0E0,0E0,0E0,0E0,0E0],"parents":[2147483647,0,0,1,1,2,2,3,3,4,4,7,7],"right_children":[2,4,6,8,10,-1,-1,12,-1,-1,-1,-1,-1],"split_conditions":[-2.803248E-1,9.412508E-1,9.8818517E-1,-7.1057314E-1,3.0668536E-1,1.236012E-1,-0E0,-9.2030257E-1,-1.260404E-1,7.903295E-2,-8.942921E-2,-7.471995E-2,4.587385E-3],"split_indices":[8,4,0,4,2,0,0,4,0,0,0,0,0],"split_type":[0,0,0,0,0,0,0,0,0,0,0,0,0],"sum_hessian":[2.9065516E1,1.5472697E1,1.3592819E1,1.2192214E1,3.280483E0,1.1594069E1,1.9987506E0,2.235509E0,9.956705E0,1.4684205E0,1.8120625E0,1.065492E0,1.170017E0],"tree_param":{"num_deleted":"0","num_feature":"15","num_nodes":"13","size_leaf_vector":"1"}},{"base_weights":[-1.0645019E-2,-9.169365E-1,1.0213393E0,2.5005827E-2,-1.0266916E0,1.1931423E-1,-0E0,-1.2018148E-1,-5.9630746E-1,2.3813264E-2,-1.06086865E-1],"categories":[],"categories_nodes":[],"categories_segments":[],"categories_sizes":[],"default_left":[0,0,0,0,0,0,0,0,0,0,0],"id":8,"left_children":[1,3,5,-1,7,-1,-1,-1,9,-1,-1],"loss_changes":[2.775594E1,2.2797327E0,2.4356833E0,0E0,3.862009E-1,0E0,0E0,0E0,2.6625488E0,0E0,0E0],"parents":[2147483647,0,0,1,1,2,2,4,4,8,8],"right_children":[2,4,6,-1,8,-1,-1,-1,10,-1,-1],"split_conditions":[-2.803248E-1,-8.1780666E-1,9.8818517E-1,2.5005827E-2,-5.1793694E-1,1.1931423E-1,-0E0,-1.2018148E-1,-1.790159E-1,2.3813264E-2,-1.06086865E-1],"split_indices":[8,0,0,0,8,0,0,0,1,0,0],"split_type":[0,0,0,0,0,0,0,0,0,0,0],"sum_hessian":[2.7675346E1,1.479437E1,1.2880976E1,1.1618986E0,1.3632471E1,1.0882225E1,1.9987506E0,8.415702E0,5.216769E0,2.0399804E0,3.1767888E0],"tree_param":{"num_deleted":"0","num_feature":"15","num_nodes":"11","size_leaf_vector":"1"}},{"base_weights":[-1.2057796E-2,-8.745323E-1,9.801187E-1,-1.0726899E0,-7.8283794E-2,1.155285E-1,-0E0,-3.8236614E-2,-1.1827244E-1,7.462888E-2,-8.167624E-2],"categories":[],"categories_nodes":[],"categories_segments":[],"categories_sizes":[],"default_left":[0,0,0,0,0,0,0,0,0,0,0],"id":9,"left_children":[1,3,5,7,9,-1,-1,-1,-1,-1,-1],"loss_changes":[2.4247078E1,2.3065805E0,2.263218E0,4.6330833E-1,3.1048622E0,0E0,0E0,0E0,0E0,0E0,0E0],"parents":[2147483647,0,0,1,1,2,2,3,3,4,4],"right_children":[2,4,6,8,10,-1,-1,-1,-1,-1,-1],"split_conditions":[-2.803248E-1,9.412508E-1,9.8818517E-1,-7.1057314E-1,3.0668536E-1,1.155285E-1,-0E0,-3.8236614E-2,-1.1827244E-1,7.462888E-2,-8.167624E-2],"split_indices":[8,4,0,4,2,0,0,0,0,0,0],"split_type":[0,0,0,0,0,0,0,0,0,0,0],"sum_hessian":[2.6333408E1,1.41509285E1,1.218248E1,1.1053043E1,3.097885E0,1.0183729E1,1.9987506E0,2.134814E0,8.918229E0,1.4586288E0,1.6392562E0],"tree_param":{"num_deleted":"0","num_feature":"15","num_nodes":"11","size_leaf_vector":"1"}},{"base_weights":[-1.3139431E-2,-8.3689916E-1,9.422111E-1,-1.0312953E0,-7.421754E-2,1.1214489E-1,-0E0,-3.5982057E-2,-1.143911E-1,7.042854E-2,-7.880666E-2],"categories":[],"categories_nodes":[],"categories_segments":[],"categories_sizes":[],"default_left":[0,0,0,0,0,0,0,0,0,0,0],"id":10,"left_children":[1,3,5,7,9,-1,-1,-1,-1,-1,-1],"loss_changes":[2.1244638E1,2.0714083E0,2.1119633E0,4.555397E-1,2.789162E0,0E0,0E0,0E0,0E0,0E0,0E0],"parents":[2147483647,0,0,1,1,2,2,3,3,4,4],"right_children":[2,4,6,8,10,-1,-1,-1,-1,-1,-1],"split_conditions":[-2.803248E-1,9.412508E-1,9.8818517E-1,-7.1057314E-1,3.0668536E-1,1.1214489E-1,-0E0,-3.5982057E-2,-1.143911E-1,7.042854E-2,-7.880666E-2],"split_indices":[8,4,0,4,2,0,0,0,0,0,0],"split_type":[0,0,0,0,0,0,0,0,0,0,0],"sum_hessian":[2.499319E1,1.3487477E1,1.15057125E1,1.0467318E1,3.02016E0,9.506962E0,1.9987506E0,2.105905E0,8.361412E0,1.4510666E0,1.5690935E0],"tree_param":{"num_deleted":"0","num_feature":"15","num_nodes":"11","size_leaf_vector":"1"}},{"base_weights":[-1.422146E-2,-8.023162E-1,9.0696263E-1,-9.932277E-1,-7.084646E-2,1.09085836E-1,-0E0,-3.3863556E-2,-1.1090342E-1,6.6558175E-2,-7.611756E-2],"categories":[],"categories_nodes":[],"categories_segments":[],"categories_sizes":[],"default_left":[0,0,0,0,0,0,0,0,0,0,0],"id":11,"left_children":[1,3,5,7,9,-1,-1,-1,-1,-1,-1],"loss_changes":[1.8657312E1,1.8624287E0,1.977499E0,4.5066357E-1,2.5103996E0,0E0,0E0,0E0,0E0,0E0,0E0],"parents":[2147483647,0,0,1,1,2,2,3,3,4,4],"right_children":[2,4,6,8,10,-1,-1,-1,-1,-1,-1],"split_conditions":[-2.803248E-1,9.412508E-1,9.8818517E-1,-7.1057314E-1,3.0668536E-1,1.09085836E-1,-0E0,-3.3863556E-2,-1.1090342E-1,6.6558175E-2,-7.611756E-2],"split_indices":[8,4,0,4,2,0,0,0,0,0,0],"split_type":[0,0,0,0,0,0,0,0,0,0,0],"sum_hessian":[2.3697147E1,1.284068E1,1.0856467E1,9.899172E0,2.941508E0,8.857717E0,1.9987506E0,2.077925E0,7.821247E0,1.4405787E0,1.5009294E0],"tree_param":{"num_deleted":"0","num_feature":"15","num_nodes":"11","size_leaf_vector":"1"}},{"base_weights":[-1.5301598E-2,-7.7025914E-1,8.7386453E-1,-9.231721E-1,4.510688E-3,1.0628986E-1,-0E0,-1.03621595E-1,-2.455339E-2],"categories":[],"categories_nodes":[],"categories_segments":[],"categories_sizes":[],"default_left":[0,0,0,0,0,0,0,0,0],"id":12,"left_children":[1,3,5,7,-1,-1,-1,-1,-1],"loss_changes":[1.6417837E1,1.6894321E0,1.8564987E0,6.0165787E-1,0E0,0E0,0E0,0E0,0E0],"parents":[2147483647,0,0,1,1,2,2,3,3],"right_children":[2,4,6,8,-1,-1,-1,-1,-1],"split_conditions":[-2.803248E-1,1.2724528E0,9.8818517E-1,-4.2354482E-1,4.510688E-3,1.0628986E-1,-0E0,-1.03621595E-1,-2.455339E-2],"split_indices":[8,4,0,8,0,0,0,0,0],"split_type":[0,0,0,0,0,0,0,0,0],"sum_hessian":[2.24547E1,1.2216153E1,1.0238547E1,1.0175611E1,2.040543E0,8.239797E0,1.9987506E0,8.267299E0,1.908311E0],"tree_param":{"num_deleted":"0","num_feature":"15","num_nodes":"9","size_leaf_vector":"1"}},{"base_weights":[-1.498116E-2,-7.329104E-1,8.425189E-1,2.6555581E-2,-8.4530133E-1,1.03707604E-1,-0E0,-1.05690315E-1,-4.0477046E-1,3.780524E-2,-9.1694124E-2],"categories":[],"categories_nodes":[],"categories_segments":[],"categories_sizes":[],"default_left":[0,0,0,0,0,0,0,0,0,0,0],"id":13,"left_children":[1,3,5,-1,7,-1,-1,-1,9,-1,-1],"loss_changes":[1.4382144E1,1.6501698E0,1.7464213E0,0E0,6.5894794E-1,0E0,0E0,0E0,2.5131369E0,0E0,0E0],"parents":[2147483647,0,0,1,1,2,2,4,4,8,8],"right_children":[2,4,6,-1,8,-1,-1,-1,10,-1,-1],"split_conditions":[-2.803248E-1,-8.1780666E-1,9.8818517E-1,2.6555581E-2,-5.1793694E-1,1.03707604E-1,-0E0,-1.05690315E-1,-1.790159E-1,3.780524E-2,-9.1694124E-2],"split_indices":[8,0,0,0,8,0,0,0,1,0,0],"split_type":[0,0,0,0,0,0,0,0,0,0,0],"sum_hessian":[2.1358852E1,1.1704623E1,9.654228E0,1.0463355E0,1.0658288E1,7.655478E0,1.9987506E0,6.25476E0,4.403528E0,1.845165E0,2.5583632E0],"tree_param":{"num_deleted":"0","num_feature":"15","num_nodes":"11","size_leaf_vector":"1"}},{"base_weights":[-1.5557799E-2,-6.60895E-1,8.718054E-1,-8.731808E-1,-9.2588406E-4,9.974767E-1,-3.986455E-3,-3.7729755E-1,-9.6446805E-2,5.817991E-2,-6.989767E-2,1.08160965E-1,2.2019414E-2,8.686536E-3,-6.694701E-2],"categories":[],"categories_nodes":[],"categories_segments":[],"categories_sizes":[],"default_left":[0,0,0,0,0,0,0,0,0,0,0,0,0,0,0],"id":14,"left_children":[1,3,5,7,9,11,-1,13,-1,-1,-1,-1,-1,-1,-1],"loss_changes":[1.2759071E1,1.8045263E0,1.1154451E0,7.7409744E-2,2.089546E0,3.0394936E-1,0E0,4.864545E-1,0E0,0E0,0E0,0E0,0E0,0E0,0E0],"parents":[2147483647,0,0,1,1,2,2,3,3,4,4,5,5,7,7],"right_children":[2,4,6,8,10,12,-1,14,-1,-1,-1,-1,-1,-1,-1],"split_conditions":[-2.3087563E-1,5.0182396E-1,1.4264024E0,-7.1057314E-1,3.0668536E-1,1.0770459E-1,-3.986455E-3,7.298848E-1,-9.6446805E-2,5.817991E-2,-6.989767E-2,1.08160965E-1,2.2019414E-2,8.686536E-3,-6.694701E-2],"split_indices":[8,4,1,4,2,4,0,1,0,0,0,0,0,0,0],"split_type":[0,0,0,0,0,0,0,0,0,0,0,0,0,0,0],"sum_hessian":[2.0274656E1,1.1885854E1,8.388803E0,8.748687E0,3.1371672E0,7.289803E0,1.0989996E0,2.1581945E0,6.5904922E0,1.8005912E0,1.336576E0,6.2245336E0,1.0652696E0,1.1051611E0,1.0530335E0],"tree_param":{"num_deleted":"0","num_feature":"15","num_nodes":"15","size_leaf_vector":"1"}},{"base_weights":[-1.656276E-2,-6.342802E-1,8.396871E-1,-8.408109E-1,-4.124379E-3,-5.7352884E-3,9.7126216E-1,-3.624936E-1,-9.3151815E-2,5.4789223E-2,-6.77004E-2,1.8202735E-2,1.0600591E-1,-6.520891E-2,8.87007E-3],"categories":[],"categories_nodes":[],"categories_segments":[],"categories_sizes":[],"default_left":[0,0,0,0,0,0,0,0,0,0,0,0,0,0,0],"id":15,"left_children":[1,3,5,7,9,-1,11,13,-1,-1,-1,-1,-1,-1,-1],"loss_changes":[1.12866335E1,1.6078591E0,1.1121955E0,6.668806E-2,1.879371E0,0E0,3.580184E-1,4.6586472E-1,0E0,0E0,0E0,0E0,0E0,0E0,0E0],"parents":[2147483647,0,0,1,1,2,2,3,3,4,4,6,6,7,7],"right_children":[2,4,6,8,10,-1,12,14,-1,-1,-1,-1,-1,-1,-1],"split_conditions":[-2.3087563E-1,5.0182396E-1,-1.1930776E0,-7.1057314E-1,3.0668536E-1,-5.7352884E-3,-1.110223E-16,-1.7309921E0,-9.3151815E-2,5.4789223E-2,-6.77004E-2,1.8202735E-2,1.0600591E-1,-6.520891E-2,8.87007E-3],"split_indices":[8,4,13,4,2,0,9,10,0,0,0,0,0,0,0],"split_type":[0,0,0,0,0,0,0,0,0,0,0,0,0,0,0],"sum_hessian":[1.9332048E1,1.1380872E1,7.9511766E0,8.319804E0,3.0610678E0,1.0892307E0,6.861946E0,2.1226988E0,6.1971054E0,1.783594E0,1.2774738E0,1.0024058E0,5.85954E0,1.0216862E0,1.1010125E0],"tree_param":{"num_deleted":"0","num_feature":"15","num_nodes":"15","size_leaf_vector":"1"}},{"base_weights":[-1.775426E-2,-6.089167E-1,8.0851346E-1,-2.427257E-1,-1.0178931E-1,-5.432244E-3,9.421416E-1,1.0761918E-1,-7.0066494E-1,1.0318716E-1,2.184639E-2,1.8758193E-2,-9.243581E-2],"categories":[],"categories_nodes":[],"categories_segments":[],"categories_sizes":[],"default_left":[0,0,0,0,0,0,0,0,0,0,0,0,0],"id":16,"left_children":[1,3,5,7,-1,-1,9,-1,11,-1,-1,-1,-1],"loss_changes":[9.99092E0,1.5360422E0,1.0358214E0,5.3411875E0,0E0,0E0,2.5829124E-1,0E0,1.4138646E0,0E0,0E0,0E0,0E0],"parents":[2147483647,0,0,1,1,2,2,3,3,6,6,8,8],"right_children":[2,4,6,8,-1,-1,10,-1,12,-1,-1,-1,-1],"split_conditions":[-2.3087563E-1,8.3816275E-2,-1.1930776E0,2.9770768E-1,-1.0178931E-1,-5.432244E-3,8.355357E-2,1.0761918E-1,-8.1417763E-1,1.0318716E-1,2.184639E-2,1.8758193E-2,-9.243581E-2],"split_indices":[8,6,13,13,0,0,4,0,0,0,0,0,0],"split_type":[0,0,0,0,0,0,0,0,0,0,0,0,0],"sum_hessian":[1.8446081E1,1.0906182E1,7.5398984E0,6.594799E0,4.3113837E0,1.0907049E0,6.4491935E0,1.351693E0,5.243106E0,5.358867E0,1.0903261E0,1.0872508E0,4.155855E0],"tree_param":{"num_deleted":"0","num_feature":"15","num_nodes":"13","size_leaf_vector":"1"}},{"base_weights":[-1.4224086E-2,-5.8209383E-1,7.785985E-1,-2.2316766E-1,-9.883839E-2,9.180575E-1,-7.001108E-3,1.0261469E-1,-6.7021126E-1,1.0105586E-1,2.0852858E-2,1.7776323E-2,-8.941374E-2],"categories":[],"categories_nodes":[],"categories_segments":[],"categories_sizes":[],"default_left":[0,0,0,0,0,0,0,0,0,0,0,0,0],"id":17,"left_children":[1,3,5,7,-1,9,-1,-1,11,-1,-1,-1,-1],"loss_changes":[8.794165E0,1.4370258E0,1.0299287E0,4.779753E0,0E0,2.5386477E-1,0E0,0E0,1.2984152E0,0E0,0E0,0E0,0E0],"parents":[2147483647,0,0,1,1,2,2,3,3,5,5,8,8],"right_children":[2,4,6,8,-1,10,-1,-1,12,-1,-1,-1,-1],"split_conditions":[-2.3087563E-1,8.3816275E-2,1.4264024E0,2.9770768E-1,-9.883839E-2,8.355357E-2,-7.001108E-3,1.0261469E-1,-8.1417763E-1,1.0105586E-1,2.0852858E-2,1.7776323E-2,-8.941374E-2],"split_indices":[8,6,1,13,0,4,0,0,0,0,0,0,0],"split_type":[0,0,0,0,0,0,0,0,0,0,0,0,0],"sum_hessian":[1.7526382E1,1.0366811E1,7.159571E0,6.326826E0,4.039985E0,6.078761E0,1.0808103E0,1.3259368E0,5.0008893E0,5.0023403E0,1.0764208E0,1.0877804E0,3.9131088E0],"tree_param":{"num_deleted":"0","num_feature":"15","num_nodes":"13","size_leaf_vector":"1"}},{"base_weights":[-1.0982139E-2,-7.2542393E-1,5.778163E-1,-8.88656E-2,1.8382631E-3,-6.6381276E-2,7.982739E-1,9.63478E-2,2.4814604E-1,8.908265E-2,-5.797003E-2],"categories":[],"categories_nodes":[],"categories_segments":[],"categories_sizes":[],"default_left":[0,0,0,0,0,0,0,0,0,0,0],"id":18,"left_children":[1,3,5,-1,-1,-1,7,-1,9,-1,-1],"loss_changes":[7.8487225E0,1.0389738E0,3.332533E0,0E0,0E0,0E0,5.924053E-1,0E0,2.357181E0,0E0,0E0],"parents":[2147483647,0,0,1,1,2,2,6,6,8,8],"right_children":[2,4,6,-1,-1,-1,8,-1,10,-1,-1],"split_conditions":[-4.2354482E-1,1.2724528E0,-1.3522751E0,-8.88656E-2,1.8382631E-3,-6.6381276E-2,1.2206788E-2,9.63478E-2,-7.1905917E-1,8.908265E-2,-5.797003E-2],"split_indices":[8,4,13,0,0,0,2,0,4,0,0],"split_type":[0,0,0,0,0,0,0,0,0,0,0],"sum_hessian":[1.6661583E1,7.4227977E0,9.238786E0,5.927285E0,1.4955126E0,1.0898161E0,8.14897E0,5.689142E0,2.459827E0,1.3419534E0,1.1178735E0],"tree_param":{"num_deleted":"0","num_feature":"15","num_nodes":"11","size_leaf_vector":"1"}},{"base_weights":[-1.17138345E-2,-6.942137E-1,5.511845E-1,-8.5879385E-1,1.7275865E-3,-6.3475505E-2,7.6951784E-1,-2.7072286E-2,-9.4184935E-2,9.3520544E-2,2.3628856E-1,8.556326E-2,-5.51942E-2],"categories":[],"categories_nodes":[],"categories_segments":[],"categories_sizes":[],"default_left":[0,0,0,0,0,0,0,0,0,0,0,0,0],"id":19,"left_children":[1,3,5,7,-1,-1,9,-1,-1,-1,11,-1,-1],"loss_changes":[6.8653803E0,9.5974755E-1,3.027224E0,6.6073895E-2,0E0,0E0,5.505266E-1,0E0,0E0,0E0,2.1361024E0,0E0,0E0],"parents":[2147483647,0,0,1,1,2,2,3,3,6,6,10,10],"right_children":[2,4,6,8,-1,-1,10,-1,-1,-1,12,-1,-1],"split_conditions":[-4.2354482E-1,1.2724528E0,-1.3522751E0,-7.1057314E-1,1.7275865E-3,-6.3475505E-2,1.2206788E-2,-2.7072286E-2,-9.4184935E-2,9.3520544E-2,-7.1905917E-1,8.556326E-2,-5.51942E-2],"split_indices":[8,4,13,4,0,0,2,0,0,0,4,0,0],"split_type":[0,0,0,0,0,0,0,0,0,0,0,0,0],"sum_hessian":[1.5874314E1,7.0694737E0,8.804841E0,5.5732465E0,1.496227E0,1.0724187E0,7.7324224E0,1.2168603E0,4.356386E0,5.324206E0,2.4082162E0,1.3006968E0,1.1075194E0],"tree_param":{"num_deleted":"0","num_feature":"15","num_nodes":"13","size_leaf_vector":"1"}},{"base_weights":[-1.4521154E-2,-5.1488954E-1,6.981727E-1,-1.5118639E-1,-9.308252E-2,8.922478E-2,4.641864E-3,9.5560625E-2,-5.958126E-1,-8.538836E-2,1.5213752E-2],"categories":[],"categories_nodes":[],"categories_segments":[],"categories_sizes":[],"default_left":[0,0,0,0,0,0,0,0,0,0,0],"id":20,"left_children":[1,3,5,7,-1,-1,-1,-1,9,-1,-1],"loss_changes":[6.1200047E0,1.3820338E0,8.550811E-1,3.79963E0,0E0,0E0,0E0,0E0,1.1527144E0,0E0,0E0],"parents":[2147483647,0,0,1,1,2,2,3,3,8,8],"right_children":[2,4,6,8,-1,-1,-1,-1,10,-1,-1],"split_conditions":[-2.3087563E-1,8.3816275E-2,9.8818517E-1,2.9770768E-1,-9.308252E-2,8.922478E-2,4.641864E-3,9.5560625E-2,5.0182396E-1,-8.538836E-2,1.5213752E-2],"split_indices":[8,6,0,13,0,0,0,0,4,0,0],"split_type":[0,0,0,0,0,0,0,0,0,0,0],"sum_hessian":[1.5153588E1,9.066042E0,6.0875463E0,5.5641303E0,3.5019116E0,4.406433E0,1.6811132E0,1.2652794E0,4.2988505E0,3.0907826E0,1.2080681E0],"tree_param":{"num_deleted":"0","num_feature":"15","num_nodes":"11","size_leaf_vector":"1"}},{"base_weights":[-1.2237246E-2,-6.4534277E-1,5.104198E-1,-8.1417555E-1,3.019367E-3,-6.0550254E-2,7.292575E-1,-2.3550434E-2,-9.027419E-2,1.7332407E-2,8.6472225E-1,9.65622E-2,1.8571101E-2],"categories":[],"categories_nodes":[],"categories_segments":[],"categories_sizes":[],"default_left":[0,0,0,0,0,0,0,0,0,0,0,0,0],"id":21,"left_children":[1,3,5,7,-1,-1,9,-1,-1,-1,11,-1,-1],"loss_changes":[5.419137E0,8.682873E-1,2.6355505E0,9.255266E-2,0E0,0E0,4.499488E-1,0E0,0E0,0E0,2.4226856E-1,0E0,0E0],"parents":[2147483647,0,0,1,1,2,2,3,3,6,6,10,10],"right_children":[2,4,6,8,-1,-1,10,-1,-1,-1,12,-1,-1],"split_conditions":[-4.2354482E-1,1.2724528E0,-1.3522751E0,-7.1057314E-1,3.019367E-3,-6.0550254E-2,-2.3087563E-1,-2.3550434E-2,-9.027419E-2,1.7332407E-2,-2.6925502E-2,9.65622E-2,1.8571101E-2],"split_indices":[8,4,13,4,0,0,8,0,0,0,4,0,0],"split_type":[0,0,0,0,0,0,0,0,0,0,0,0,0],"sum_hessian":[1.4381647E1,6.3974934E0,7.9841537E0,4.954113E0,1.4433804E0,1.0193365E0,6.9648175E0,1.1432784E0,3.8108346E0,1.8112223E0,5.153595E0,4.119365E0,1.0342299E0],"tree_param":{"num_deleted":"0","num_feature":"15","num_nodes":"13","size_leaf_vector":"1"}},{"base_weights":[-1.3993253E-2,-4.7243768E-1,6.470653E-1,-1.03030644E-1,-8.9929536E-2,8.5752964E-2,1.9867818E-3,9.145494E-2,-5.4486257E-1,-8.1218086E-2,1.5663704E-2],"categories":[],"categories_nodes":[],"categories_segments":[],"categories_sizes":[],"default_left":[0,0,0,0,0,0,0,0,0,0,0],"id":22,"left_children":[1,3,5,7,-1,-1,-1,-1,9,-1,-1],"loss_changes":[4.791985E0,1.3768482E0,8.3888006E-1,3.2522004E0,0E0,0E0,0E0,0E0,1.0456126E0,0E0,0E0],"parents":[2147483647,0,0,1,1,2,2,3,3,8,8],"right_children":[2,4,6,8,-1,-1,-1,-1,10,-1,-1],"split_conditions":[-2.3087563E-1,8.3816275E-2,9.8818517E-1,2.9770768E-1,-8.9929536E-2,8.5752964E-2,1.9867818E-3,9.145494E-2,5.0182396E-1,-8.1218086E-2,1.5663704E-2],"split_indices":[8,6,0,13,0,0,0,0,4,0,0],"split_type":[0,0,0,0,0,0,0,0,0,0,0],"sum_hessian":[1.3803367E1,8.319276E0,5.4840903E0,5.125224E0,3.1940517E0,3.8312306E0,1.6528599E0,1.2277344E0,3.8974898E0,2.7078428E0,1.1896472E0],"tree_param":{"num_deleted":"0","num_feature":"15","num_nodes":"11","size_leaf_vector":"1"}},{"base_weights":[-1.1731773E-2,-5.9979624E-1,4.713906E-1,-7.7217436E-1,4.0854868E-3,8.184385E-2,-2.0855264E-1,-2.0414097E-2,-8.659458E-2,1.554431E-2,-4.942505E-2],"categories":[],"categories_nodes":[],"categories_segments":[],"categories_sizes":[],"default_left":[0,0,0,0,0,0,0,0,0,0,0],"id":23,"left_children":[1,3,5,7,-1,-1,9,-1,-1,-1,-1],"loss_changes":[4.2954097E0,7.83618E-1,2.1324897E0,1.1173606E-1,0E0,0E0,4.518615E-1,0E0,0E0,0E0,0E0],"parents":[2147483647,0,0,1,1,2,2,3,3,6,6],"right_children":[2,4,6,8,-1,-1,10,-1,-1,-1,-1],"split_conditions":[-4.2354482E-1,1.2724528E0,7.6709425E-1,-7.1057314E-1,4.0854868E-3,8.184385E-2,-8.300665E-1,-2.0414097E-2,-8.659458E-2,1.554431E-2,-4.942505E-2],"split_indices":[8,4,0,4,0,0,4,0,0,0,0],"split_type":[0,0,0,0,0,0,0,0,0,0,0],"sum_hessian":[1.3123799E1,5.810123E0,7.3136764E0,4.4164934E0,1.3936293E0,4.707333E0,2.606343E0,1.0759264E0,3.340567E0,1.3466061E0,1.259737E0],"tree_param":{"num_deleted":"0","num_feature":"15","num_nodes":"11","size_leaf_vector":"1"}},{"base_weights":[-1.4986936E-2,-4.4199643E-1,6.041401E-1,-7.42026E-2,-8.66257E-2,8.2219474E-2,2.0815625E-3,8.637351E-2,-5.049919E-1,-7.748874E-2,1.5210919E-2],"categories":[],"categories_nodes":[],"categories_segments":[],"categories_sizes":[],"default_left":[0,0,0,0,0,0,0,0,0,0,0],"id":24,"left_children":[1,3,5,7,-1,-1,-1,-1,9,-1,-1],"loss_changes":[3.8650825E0,1.2826713E0,7.432289E-1,2.7463179E0,0E0,0E0,0E0,0E0,9.2462265E-1,0E0,0E0],"parents":[2147483647,0,0,1,1,2,2,3,3,8,8],"right_children":[2,4,6,8,-1,-1,-1,-1,10,-1,-1],"split_conditions":[-2.3087563E-1,8.3816275E-2,9.8818517E-1,2.9770768E-1,-8.66257E-2,8.2219474E-2,2.0815625E-3,8.637351E-2,5.0182396E-1,-7.748874E-2,1.5210919E-2],"split_indices":[8,6,0,13,0,0,0,0,4,0,0],"split_type":[0,0,0,0,0,0,0,0,0,0,0],"sum_hessian":[1.260976E1,7.632057E0,4.977703E0,4.717408E0,2.9146488E0,3.3252E0,1.652503E0,1.168431E0,3.5489774E0,2.3886282E0,1.160349E0],"tree_param":{"num_deleted":"0","num_feature":"15","num_nodes":"11","size_leaf_vector":"1"}},{"base_weights":[-1.2647476E-2,-4.2444706E-1,5.819564E-1,-6.542848E-2,-8.43158E-2,8.041393E-2,1.9522024E-3,8.303643E-2,-4.8547325E-1,1.8606601E-2,-7.387229E-2],"categories":[],"categories_nodes":[],"categories_segments":[],"categories_sizes":[],"default_left":[0,0,0,0,0,0,0,0,0,0,0],"id":25,"left_children":[1,3,5,7,-1,-1,-1,-1,9,-1,-1],"loss_changes":[3.4333115E0,1.1874994E0,7.023841E-1,2.4856513E0,0E0,0E0,0E0,0E0,8.8556004E-1,0E0,0E0],"parents":[2147483647,0,0,1,1,2,2,3,3,8,8],"right_children":[2,4,6,8,-1,-1,-1,-1,10,-1,-1],"split_conditions":[-2.3087563E-1,8.3816275E-2,9.8818517E-1,2.9770768E-1,-8.43158E-2,8.041393E-2,1.9522024E-3,8.303643E-2,-8.135874E-1,1.8606601E-2,-7.387229E-2],"split_indices":[8,6,0,13,0,0,0,0,0,0,0],"split_type":[0,0,0,0,0,0,0,0,0,0,0],"sum_hessian":[1.20128765E1,7.2665286E0,4.7463474E0,4.5346284E0,2.7319005E0,3.0942526E0,1.6520948E0,1.1357232E0,3.3989048E0,1.0034236E0,2.3954813E0],"tree_param":{"num_deleted":"0","num_feature":"15","num_nodes":"11","size_leaf_vector":"1"}},{"base_weights":[-9.953467E-3,-5.3827435E-1,4.2195764E-1,-7.1568567E-1,6.440571E-3,7.629581E-2,-1.8098342E-1,-1.8041683E-2,-8.128382E-2,1.3463049E-2,-4.3510225E-2],"categories":[],"categories_nodes":[],"categories_segments":[],"categories_sizes":[],"default_left":[0,0,0,0,0,0,0,0,0,0,0],"id":26,"left_children":[1,3,5,7,-1,-1,9,-1,-1,-1,-1],"loss_changes":[3.0735343E0,6.9299614E-1,1.6644311E0,1.0071707E-1,0E0,0E0,3.3849716E-1,0E0,0E0,0E0,0E0],"parents":[2147483647,0,0,1,1,2,2,3,3,6,6],"right_children":[2,4,6,8,-1,-1,10,-1,-1,-1,-1],"split_conditions":[-4.2354482E-1,1.2724528E0,2.9243582E-1,-5.3780377E-1,6.440571E-3,7.629581E-2,-8.300665E-1,-1.8041683E-2,-8.128382E-2,1.3463049E-2,-4.3510225E-2],"split_indices":[8,4,2,4,0,0,4,0,0,0,0],"split_type":[0,0,0,0,0,0,0,0,0,0,0],"sum_hessian":[1.1473967E1,5.050207E0,6.4237595E0,3.756808E0,1.2933993E0,3.933646E0,2.4901137E0,1.0160198E0,2.7407882E0,1.3203964E0,1.1697172E0],"tree_param":{"num_deleted":"0","num_feature":"15","num_nodes":"11","size_leaf_vector":"1"}},{"base_weights":[-1.3124291E-2,-3.968756E-1,5.4251915E-1,-4.05567E-2,-8.1332095E-2,7.13481E-1,-9.730036E-3,7.875825E-2,-4.4703713E-1,8.272405E-2,1.7020537E-2,-7.258139E-2,1.621218E-2],"categories":[],"categories_nodes":[],"categories_segments":[],"categories_sizes":[],"default_left":[0,0,0,0,0,0,0,0,0,0,0,0,0],"id":27,"left_children":[1,3,5,7,-1,9,-1,-1,11,-1,-1,-1,-1],"loss_changes":[2.7877915E0,1.1116005E0,6.547283E-1,2.1056511E0,0E0,1.2758446E-1,0E0,0E0,8.1938756E-1,0E0,0E0,0E0,0E0],"parents":[2147483647,0,0,1,1,2,2,3,3,5,5,8,8],"right_children":[2,4,6,8,-1,10,-1,-1,12,-1,-1,-1,-1],"split_conditions":[-2.3087563E-1,8.3816275E-2,1.3905821E0,2.9770768E-1,-8.1332095E-2,-2.7441105E-1,-9.730036E-3,7.875825E-2,5.0182396E-1,8.272405E-2,1.7020537E-2,-7.258139E-2,1.621218E-2],"split_indices":[8,6,1,13,0,4,0,0,4,0,0,0,0],"split_type":[0,0,0,0,0,0,0,0,0,0,0,0,0],"sum_hessian":[1.10644E1,6.713503E0,4.3508973E0,4.2093163E0,2.5041866E0,3.342612E0,1.008285E0,1.0771762E0,3.1321402E0,2.3316789E0,1.0109333E0,2.0173943E0,1.1147459E0],"tree_param":{"num_deleted":"0","num_feature":"15","num_nodes":"13","size_leaf_vector":"1"}},{"base_weights":[-9.904521E-3,-3.813161E-1,5.2062494E-1,-3.381084E-2,-7.9178125E-2,7.58145E-2,8.4508174E-5,7.591831E-2,-4.297736E-1,-7.070672E-2,1.5369638E-2],"categories":[],"categories_nodes":[],"categories_segments":[],"categories_sizes":[],"default_left":[0,0,0,0,0,0,0,0,0,0,0],"id":28,"left_children":[1,3,5,7,-1,-1,-1,-1,9,-1,-1],"loss_changes":[2.4856956E0,1.029439E0,6.416614E-1,1.9133807E0,0E0,0E0,0E0,0E0,7.574181E-1,0E0,0E0],"parents":[2147483647,0,0,1,1,2,2,3,3,8,8],"right_children":[2,4,6,8,-1,-1,-1,-1,10,-1,-1],"split_conditions":[-2.3087563E-1,8.3816275E-2,9.8818517E-1,2.9770768E-1,-7.9178125E-2,7.58145E-2,8.4508174E-5,7.591831E-2,5.0182396E-1,-7.070672E-2,1.5369638E-2],"split_indices":[8,6,0,13,0,0,0,0,4,0,0],"split_type":[0,0,0,0,0,0,0,0,0,0,0],"sum_hessian":[1.0607376E1,6.4047856E0,4.2025905E0,4.0545344E0,2.350251E0,2.5697308E0,1.6328597E0,1.0448021E0,3.0097325E0,1.8965617E0,1.1131706E0],"tree_param":{"num_deleted":"0","num_feature":"15","num_nodes":"11","size_leaf_vector":"1"}},{"base_weights":[-7.904497E-3,-4.837076E-1,3.7680396E-1,-6.6413337E-1,7.8316545E-3,7.112395E-2,-1.6716422E-1,-1.845373E-2,-7.622245E-2,1.3909558E-2,-4.187024E-2],"categories":[],"categories_nodes":[],"categories_segments":[],"categories_sizes":[],"default_left":[0,0,0,0,0,0,0,0,0,0,0],"id":29,"left_children":[1,3,5,7,-1,-1,9,-1,-1,-1,-1],"loss_changes":[2.2230034E0,6.0184145E-1,1.3426191E0,5.739665E-2,0E0,0E0,3.1790766E-1,0E0,0E0,0E0,0E0],"parents":[2147483647,0,0,1,1,2,2,3,3,6,6],"right_children":[2,4,6,8,-1,-1,10,-1,-1,-1,-1],"split_conditions":[-4.2354482E-1,1.2724528E0,2.9243582E-1,0E0,7.8316545E-3,7.112395E-2,-2.106357E-1,-1.845373E-2,-7.622245E-2,1.3909558E-2,-4.187024E-2],"split_indices":[8,4,2,9,0,0,8,0,0,0,0],"split_type":[0,0,0,0,0,0,0,0,0,0,0],"sum_hessian":[1.0148817E1,4.4221797E0,5.7266374E0,3.209998E0,1.2121818E0,3.3559027E0,2.3707347E0,1.0342983E0,2.1756997E0,1.2706623E0,1.1000724E0],"tree_param":{"num_deleted":"0","num_feature":"15","num_nodes":"11","size_leaf_vector":"1"}},{"base_weights":[-1.1266757E-2,-3.626012E-1,4.9087575E-1,-1.754419E-2,-7.676848E-2,7.260349E-2,1.2510758E-3,6.87741E-2,-3.9440835E-1,-6.712822E-2,1.4825723E-2],"categories":[],"categories_nodes":[],"categories_segments":[],"categories_sizes":[],"default_left":[0,0,0,0,0,0,0,0,0,0,0],"id":30,"left_children":[1,3,5,7,-1,-1,-1,-1,9,-1,-1],"loss_changes":[2.0925093E0,9.593707E-1,5.412384E-1,1.5422443E0,0E0,0E0,0E0,0E0,6.6326946E-1,0E0,0E0],"parents":[2147483647,0,0,1,1,2,2,3,3,8,8],"right_children":[2,4,6,8,-1,-1,-1,-1,10,-1,-1],"split_conditions":[-2.3087563E-1,8.3816275E-2,9.8818517E-1,3.5482797E-1,-7.676848E-2,7.260349E-2,1.2510758E-3,6.87741E-2,5.0182396E-1,-6.712822E-2,1.4825723E-2],"split_indices":[8,6,0,13,0,0,0,0,4,0,0],"split_type":[0,0,0,0,0,0,0,0,0,0,0],"sum_hessian":[9.852043E0,5.95994E0,3.8921037E0,3.7818265E0,2.1781132E0,2.2622595E0,1.6298444E0,1.0297638E0,2.7520628E0,1.6653662E0,1.0866966E0],"tree_param":{"num_deleted":"0","num_feature":"15","num_nodes":"11","size_leaf_vector":"1"}},{"base_weights":[-9.420391E-3,-3.4873563E-1,4.720094E-1,3.1727601E-3,-7.2712764E-2,7.08877E-2,1.1736545E-3,-4.826826E-2,5.737419E-2],"categories":[],"categories_nodes":[],"categories_segments":[],"categories_sizes":[],"default_left":[0,0,0,0,0,0,0,0,0],"id":31,"left_children":[1,3,5,7,-1,-1,-1,-1,-1],"loss_changes":[1.8722544E0,8.9539075E-1,5.091752E-1,1.5162773E0,0E0,0E0,0E0,0E0,0E0],"parents":[2147483647,0,0,1,1,2,2,3,3],"right_children":[2,4,6,8,-1,-1,-1,-1,-1],"split_conditions":[-2.3087563E-1,-8.033073E-2,9.8818517E-1,-2.4627055E-1,-7.2712764E-2,7.08877E-2,1.1736545E-3,-4.826826E-2,5.737419E-2],"split_indices":[8,6,0,6,0,0,0,0,0],"split_type":[0,0,0,0,0,0,0,0,0],"sum_hessian":[9.453507E0,5.7068806E0,3.7466264E0,3.470705E0,2.2361758E0,2.1170285E0,1.6295978E0,1.9577013E0,1.5130036E0],"tree_param":{"num_deleted":"0","num_feature":"15","num_nodes":"9","size_leaf_vector":"1"}},{"base_weights":[-7.960695E-3,-7.634229E-2,1.9494264E-1,-5.200903E-1,5.723493E-1,-5.8379807E-3,-6.788575E-2,7.539517E-2,1.0659842E-2],"categories":[],"categories_nodes":[],"categories_segments":[],"categories_sizes":[],"default_left":[0,0,0,0,0,0,0,0,0],"id":32,"left_children":[1,-1,3,5,7,-1,-1,-1,-1],"loss_changes":[1.701552E0,0E0,2.6674583E0,2.2116417E-1,4.4605517E-1,0E0,0E0,0E0,0E0],"parents":[2147483647,0,0,2,2,3,3,4,4],"right_children":[2,-1,4,6,8,-1,-1,-1,-1],"split_conditions":[-1.4130476E0,-7.634229E-2,-5.1793694E-1,-7.9269356E-1,-2.4910349E-1,-5.8379807E-3,-6.788575E-2,7.539517E-2,1.0659842E-2],"split_indices":[13,0,8,0,4,0,0,0,0],"split_type":[0,0,0,0,0,0,0,0,0],"sum_hessian":[9.12963E0,1.3480376E0,7.781592E0,2.5577075E0,5.2238846E0,1.0044308E0,1.5532769E0,3.3132267E0,1.9106578E0],"tree_param":{"num_deleted":"0","num_feature":"15","num_nodes":"9","size_leaf_vector":"1"}},{"base_weights":[-1.3915309E-2,-7.3941894E-2,1.8134893E-1,-5.016921E-1,5.403367E-1,-5.5516097E-3,-6.602908E-2,7.1676634E-2,9.976066E-3],"categories":[],"categories_nodes":[],"categories_segments":[],"categories_sizes":[],"default_left":[0,0,0,0,0,0,0,0,0],"id":33,"left_children":[1,-1,3,5,7,-1,-1,-1,-1],"loss_changes":[1.5310785E0,0E0,2.3732142E0,2.0903337E-1,4.0272927E-1,0E0,0E0,0E0,0E0],"parents":[2147483647,0,0,2,2,3,3,4,4],"right_children":[2,-1,4,6,8,-1,-1,-1,-1],"split_conditions":[-1.4130476E0,-7.3941894E-2,-5.1793694E-1,-7.9269356E-1,-2.4910349E-1,-5.5516097E-3,-6.602908E-2,7.1676634E-2,9.976066E-3],"split_indices":[13,0,8,0,4,0,0,0,0],"split_type":[0,0,0,0,0,0,0,0,0],"sum_hessian":[8.8611965E0,1.2881858E0,7.5730104E0,2.4720178E0,5.1009927E0,1.0023128E0,1.4697051E0,3.19476E0,1.9062326E0],"tree_param":{"num_deleted":"0","num_feature":"15","num_nodes":"9","size_leaf_vector":"1"}},{"base_weights":[-1.957151E-2,-2.2297937E-1,6.3079424E-2,-7.163885E-2,-2.9100036E-2,6.512305E-2,-3.6159182E-1,-6.844617E-2,1.2126118E-2],"categories":[],"categories_nodes":[],"categories_segments":[],"categories_sizes":[],"default_left":[0,0,0,0,0,0,0,0,0],"id":34,"left_children":[1,3,-1,-1,5,-1,7,-1,-1],"loss_changes":[1.4123156E0,7.5031745E-1,0E0,0E0,1.7803748E0,0E0,8.9843905E-1,0E0,0E0],"parents":[2147483647,0,0,1,1,4,4,6,6],"right_children":[2,4,-1,-1,6,-1,8,-1,-1],"split_conditions":[-1.1416709E-1,-1.4130476E0,6.3079424E-2,-7.163885E-2,-7.1057314E-1,6.512305E-2,6.222739E-1,-6.844617E-2,1.2126118E-2],"split_indices":[8,13,0,0,4,0,4,0,0],"split_type":[0,0,0,0,0,0,0,0,0],"sum_hessian":[8.612717E0,7.0613594E0,1.5513572E0,1.2317135E0,5.8296456E0,1.5990669E0,4.230579E0,2.2850773E0,1.9455014E0],"tree_param":{"num_deleted":"0","num_feature":"15","num_nodes":"9","size_leaf_vector":"1"}},{"base_weights":[-1.826151E-2,-2.138937E-1,6.148524E-2,-6.942935E-2,-2.5742983E-2,7.190008E-2,-3.026062E-1,-5.064889E-1,2.1617597E-2,-1.1895994E-2,-6.797452E-2],"categories":[],"categories_nodes":[],"categories_segments":[],"categories_sizes":[],"default_left":[0,0,0,0,0,0,0,0,0,0,0],"id":35,"left_children":[1,3,-1,-1,5,-1,7,9,-1,-1,-1],"loss_changes":[1.2883683E0,6.941357E-1,0E0,0E0,1.5988312E0,0E0,7.004558E-1,2.0852304E-1,0E0,0E0,0E0],"parents":[2147483647,0,0,1,1,4,4,6,6,7,7],"right_children":[2,4,-1,-1,6,-1,8,10,-1,-1,-1],"split_conditions":[-1.1416709E-1,-1.4130476E0,6.148524E-2,-6.942935E-2,-7.1905917E-1,7.190008E-2,1.2724528E0,3.7791458E-1,2.1617597E-2,-1.1895994E-2,-6.797452E-2],"split_indices":[8,13,0,0,4,0,4,13,0,0,0],"split_type":[0,0,0,0,0,0,0,0,0,0,0],"sum_hessian":[8.340216E0,6.877289E0,1.4629263E0,1.1784061E0,5.698883E0,1.1116542E0,4.587229E0,3.3100622E0,1.2771665E0,1.5437376E0,1.7663246E0],"tree_param":{"num_deleted":"0","num_feature":"15","num_nodes":"11","size_leaf_vector":"1"}},{"base_weights":[-1.6407456E-2,-2.0483366E-1,5.99233E-2,-6.730961E-2,-2.1845242E-2,5.9990387E-2,-3.2949615E-1,-6.4190045E-2,1.1313271E-2],"categories":[],"categories_nodes":[],"categories_segments":[],"categories_sizes":[],"default_left":[0,0,0,0,0,0,0,0,0],"id":36,"left_children":[1,3,-1,-1,5,-1,7,-1,-1],"loss_changes":[1.1753931E0,6.4449215E-1,0E0,0E0,1.453438E0,0E0,7.6918036E-1,0E0,0E0],"parents":[2147483647,0,0,1,1,4,4,6,6],"right_children":[2,4,-1,-1,6,-1,8,-1,-1],"split_conditions":[-1.1416709E-1,-1.4130476E0,5.99233E-2,-6.730961E-2,-7.1057314E-1,5.9990387E-2,6.222739E-1,-6.4190045E-2,1.1313271E-2],"split_indices":[8,13,0,0,4,0,4,0,0],"split_type":[0,0,0,0,0,0,0,0,0],"sum_hessian":[8.074351E0,6.6931067E0,1.3812443E0,1.1280651E0,5.5650415E0,1.527692E0,4.0373497E0,2.102922E0,1.9344275E0],"tree_param":{"num_deleted":"0","num_feature":"15","num_nodes":"9","size_leaf_vector":"1"}},{"base_weights":[-1.5317436E-2,2.8364536E-1,-4.0023136E-1,-3.2191105E-2,6.151361E-2,-7.334917E-2,2.5413488E-3],"categories":[],"categories_nodes":[],"categories_segments":[],"categories_sizes":[],"default_left":[0,0,0,0,0,0,0],"id":37,"left_children":[1,3,5,-1,-1,-1,-1],"loss_changes":[1.1305012E0,1.3139846E0,6.255003E-1,0E0,0E0,0E0,0E0],"parents":[2147483647,0,0,1,1,2,2],"right_children":[2,4,6,-1,-1,-1,-1],"split_conditions":[1.0581651E-1,-5.3816336E-1,6.434966E-1,-3.2191105E-2,6.151361E-2,-7.334917E-2,2.5413488E-3],"split_indices":[6,8,5,0,0,0,0],"split_type":[0,0,0,0,0,0,0],"sum_hessian":[7.837523E0,4.55936E0,3.2781627E0,1.6231471E0,2.936213E0,1.4329672E0,1.8451957E0],"tree_param":{"num_deleted":"0","num_feature":"15","num_nodes":"7","size_leaf_vector":"1"}},{"base_weights":[-1.8897064E-2,-6.508442E-2,1.5629618E-1,-4.349182E-1,4.6848944E-1,-6.348616E-3,-5.8429044E-2,6.239378E-2,8.235837E-3],"categories":[],"categories_nodes":[],"categories_segments":[],"categories_sizes":[],"default_left":[0,0,0,0,0,0,0,0,0],"id":38,"left_children":[1,-1,3,5,7,-1,-1,-1,-1],"loss_changes":[1.059107E0,0E0,1.6022344E0,1.3694763E-1,2.7513516E-1,0E0,0E0,0E0,0E0],"parents":[2147483647,0,0,2,2,3,3,4,4],"right_children":[2,-1,4,6,8,-1,-1,-1,-1],"split_conditions":[-1.4130476E0,-6.508442E-2,-5.1793694E-1,-7.597449E-1,-2.4910349E-1,-6.348616E-3,-5.8429044E-2,6.239378E-2,8.235837E-3],"split_indices":[13,0,8,0,4,0,0,0,0],"split_type":[0,0,0,0,0,0,0,0,0],"sum_hessian":[7.647437E0,1.0706049E0,6.5768323E0,2.1369286E0,4.4399033E0,1.021605E0,1.1153235E0,2.7264292E0,1.7134744E0],"tree_param":{"num_deleted":"0","num_feature":"15","num_nodes":"9","size_leaf_vector":"1"}},{"base_weights":[-2.442214E-2,2.6113096E-1,-3.885305E-1,-2.9231206E-2,5.6822103E-1,-7.122968E-2,2.4263833E-3,6.744818E-2,1.8484427E-2],"categories":[],"categories_nodes":[],"categories_segments":[],"categories_sizes":[],"default_left":[0,0,0,0,0,0,0,0,0],"id":39,"left_children":[1,3,5,-1,7,-1,-1,-1,-1],"loss_changes":[9.812722E-1,1.0737795E0,5.680975E-1,0E0,2.9090166E-2,0E0,0E0,0E0,0E0],"parents":[2147483647,0,0,1,1,2,2,4,4],"right_children":[2,4,6,-1,8,-1,-1,-1,-1],"split_conditions":[1.0581651E-1,-5.3816336E-1,6.434966E-1,-2.9231206E-2,4.4153747E-1,-7.122968E-2,2.4263833E-3,6.744818E-2,1.8484427E-2],"split_indices":[6,8,5,0,13,0,0,0,0],"split_type":[0,0,0,0,0,0,0,0,0],"sum_hessian":[7.462014E0,4.3406596E0,3.1213548E0,1.5661821E0,2.7744775E0,1.3426936E0,1.7786613E0,1.577831E0,1.1966465E0],"tree_param":{"num_deleted":"0","num_feature":"15","num_nodes":"9","size_leaf_vector":"1"}},{"base_weights":[-2.3892662E-2,-6.296988E-2,1.4727512E-1,-4.0082482E-1,4.3497258E-1,-4.4748043E-3,-5.5587847E-2,5.90621E-1,6.4591826E-3,1.8198801E-2,6.9011964E-2],"categories":[],"categories_nodes":[],"categories_segments":[],"categories_sizes":[],"default_left":[0,0,0,0,0,0,0,0,0,0,0],"id":40,"left_children":[1,-1,3,5,7,-1,-1,9,-1,-1,-1],"loss_changes":[9.5327526E-1,0E0,1.3224655E0,1.4223185E-1,2.647574E-1,0E0,0E0,1.9833565E-2,0E0,0E0,0E0],"parents":[2147483647,0,0,2,2,3,3,4,4,7,7],"right_children":[2,-1,4,6,8,-1,-1,10,-1,-1,-1],"split_conditions":[-1.4130476E0,-6.296988E-2,-5.1793694E-1,-7.597449E-1,-2.4910349E-1,-4.4748043E-3,-5.5587847E-2,-2.2286582E-1,6.4591826E-3,1.8198801E-2,6.9011964E-2],"split_indices":[13,0,8,0,4,0,0,8,0,0,0],"split_type":[0,0,0,0,0,0,0,0,0,0,0],"sum_hessian":[7.2987666E0,1.0177727E0,6.280994E0,2.026686E0,4.254308E0,1.0057056E0,1.0209802E0,2.5768032E0,1.677505E0,1.0585349E0,1.5182683E0],"tree_param":{"num_deleted":"0","num_feature":"15","num_nodes":"11","size_leaf_vector":"1"}},{"base_weights":[-2.5550377E-2,2.480233E-1,-3.744943E-1,-2.6551265E-2,5.348374E-1,-6.8816945E-2,2.3828738E-3,6.445139E-2,1.6236877E-2],"categories":[],"categories_nodes":[],"categories_segments":[],"categories_sizes":[],"default_left":[0,0,0,0,0,0,0,0,0],"id":41,"left_children":[1,3,5,-1,7,-1,-1,-1,-1],"loss_changes":[8.6859626E-1,9.014951E-1,5.123574E-1,0E0,4.40619E-2,0E0,0E0,0E0,0E0],"parents":[2147483647,0,0,1,1,2,2,4,4],"right_children":[2,4,6,-1,8,-1,-1,-1,-1],"split_conditions":[1.0581651E-1,-5.3816336E-1,6.434966E-1,-2.6551265E-2,4.4153747E-1,-6.8816945E-2,2.3828738E-3,6.445139E-2,1.6236877E-2],"split_indices":[6,8,5,0,13,0,0,0,0],"split_type":[0,0,0,0,0,0,0,0,0],"sum_hessian":[7.125893E0,4.156441E0,2.9694521E0,1.516121E0,2.64032E0,1.2541534E0,1.7152987E0,1.4754715E0,1.1648487E0],"tree_param":{"num_deleted":"0","num_feature":"15","num_nodes":"9","size_leaf_vector":"1"}},{"base_weights":[-2.498027E-2,-1.85819E-1,5.2776277E-2,-3.1992316E-1,2.6045669E-2,5.5302802E-2,-5.6685418E-2,-4.1017763E-2,4.5893013E-2],"categories":[],"categories_nodes":[],"categories_segments":[],"categories_sizes":[],"default_left":[0,0,0,0,0,0,0,0,0],"id":42,"left_children":[1,3,-1,5,-1,7,-1,-1,-1],"loss_changes":[8.075293E-1,4.9753618E-1,0E0,5.6602895E-1,0E0,7.897349E-1,0E0,0E0,0E0],"parents":[2147483647,0,0,1,1,3,3,5,5],"right_children":[2,4,-1,6,-1,8,-1,-1,-1],"split_conditions":[-1.1416709E-1,1.2724528E0,5.2776277E-2,-7.1057314E-1,2.6045669E-2,-1.4652995E0,-5.6685418E-2,-4.1017763E-2,4.5893013E-2],"split_indices":[8,4,0,4,0,3,0,0,0],"split_type":[0,0,0,0,0,0,0,0,0],"sum_hessian":[6.980215E0,5.9211006E0,1.0591147E0,4.7706614E0,1.150439E0,2.2014582E0,2.5692031E0,1.014855E0,1.1866031E0],"tree_param":{"num_deleted":"0","num_feature":"15","num_nodes":"9","size_leaf_vector":"1"}},{"base_weights":[-1.9594772E-2,2.469916E-1,-3.564261E-1,-2.3951462E-2,5.1578856E-1,-6.635071E-2,2.6795696E-3,6.1968297E-2,1.5387137E-2],"categories":[],"categories_nodes":[],"categories_segments":[],"categories_sizes":[],"default_left":[0,0,0,0,0,0,0,0,0],"id":43,"left_children":[1,3,5,-1,7,-1,-1,-1,-1],"loss_changes":[7.897121E-1,7.712025E-1,4.7221398E-1,0E0,3.652364E-2,0E0,0E0,0E0,0E0],"parents":[2147483647,0,0,1,1,2,2,4,4],"right_children":[2,4,6,-1,8,-1,-1,-1,-1],"split_conditions":[1.0581651E-1,-5.3816336E-1,6.434966E-1,-2.3951462E-2,4.4153747E-1,-6.635071E-2,2.6795696E-3,6.1968297E-2,1.5387137E-2],"split_indices":[6,8,5,0,13,0,0,0,0],"split_type":[0,0,0,0,0,0,0,0,0],"sum_hessian":[6.8142505E0,3.9526398E0,2.861611E0,1.4454328E0,2.507207E0,1.1825917E0,1.6790192E0,1.3946315E0,1.1125755E0],"tree_param":{"num_deleted":"0","num_feature":"15","num_nodes":"9","size_leaf_vector":"1"}},{"base_weights":[-1.9294837E-2,2.3719458E-1,-3.4243816E-1,-2.2702536E-2,4.9556243E-1,-6.227049E-2,4.7849026E-3,1.4319317E-2,6.0033478E-2],"categories":[],"categories_nodes":[],"categories_segments":[],"categories_sizes":[],"default_left":[0,0,0,0,0,0,0,0,0],"id":44,"left_children":[1,3,5,-1,7,-1,-1,-1,-1],"loss_changes":[7.1792984E-1,6.970269E-1,4.4638917E-1,0E0,4.122418E-2,0E0,0E0,0E0,0E0],"parents":[2147483647,0,0,1,1,2,2,4,4],"right_children":[2,4,6,-1,8,-1,-1,-1,-1],"split_conditions":[1.0581651E-1,-5.3816336E-1,-2.3087563E-1,-2.2702536E-2,-3.7864226E-1,-6.227049E-2,4.7849026E-3,1.4319317E-2,6.0033478E-2],"split_indices":[6,8,8,0,8,0,0,0,0],"split_type":[0,0,0,0,0,0,0,0,0],"sum_hessian":[6.6819925E0,3.87347E0,2.8085227E0,1.42837E0,2.4451E0,1.2880588E0,1.5204638E0,1.1028188E0,1.3422812E0],"tree_param":{"num_deleted":"0","num_feature":"15","num_nodes":"9","size_leaf_vector":"1"}},{"base_weights":[-1.8502316E-2,2.285814E-1,-3.2958668E-1,5.017005E-1,-2.145872E-2,-6.3176535E-2,3.1817115E-3,6.1413854E-2,1.5920168E-2],"categories":[],"categories_nodes":[],"categories_segments":[],"categories_sizes":[],"default_left":[0,0,0,0,0,0,0,0,0],"id":45,"left_children":[1,3,5,7,-1,-1,-1,-1,-1],"loss_changes":[6.5397024E-1,6.86955E-1,4.2875278E-1,2.7798831E-2,0E0,0E0,0E0,0E0,0E0],"parents":[2147483647,0,0,1,1,2,2,3,3],"right_children":[2,4,6,8,-1,-1,-1,-1,-1],"split_conditions":[1.0581651E-1,7.465526E-1,6.434966E-1,4.770354E-1,-2.145872E-2,-6.3176535E-2,3.1817115E-3,6.1413854E-2,1.5920168E-2],"split_indices":[6,14,5,13,0,0,0,0,0],"split_type":[0,0,0,0,0,0,0,0,0],"sum_hessian":[6.52802E0,3.7860782E0,2.7419417E0,2.2607384E0,1.52534E0,1.085904E0,1.6560378E0,1.1049018E0,1.1558365E0],"tree_param":{"num_deleted":"0","num_feature":"15","num_nodes":"9","size_leaf_vector":"1"}},{"base_weights":[-1.7450323E-2,1.5443563E-1,-4.6286408E-2,-1.158522E-1,5.092602E-2,-4.012313E-2,2.9775212E-2],"categories":[],"categories_nodes":[],"categories_segments":[],"categories_sizes":[],"default_left":[0,0,0,0,0,0,0],"id":46,"left_children":[1,3,-1,5,-1,-1,-1],"loss_changes":[6.3984185E-1,6.446304E-1,0E0,6.247428E-1,0E0,0E0,0E0],"parents":[2147483647,0,0,1,1,3,3],"right_children":[2,4,-1,6,-1,-1,-1],"split_conditions":[7.4100035E-1,-2.3087563E-1,-4.6286408E-2,5.0182396E-1,5.092602E-2,-4.012313E-2,2.9775212E-2],"split_indices":[2,8,0,4,0,0,0],"split_type":[0,0,0,0,0,0,0],"sum_hessian":[6.423673E0,5.1063857E0,1.3172873E0,3.2807596E0,1.8256263E0,1.9590012E0,1.3217585E0],"tree_param":{"num_deleted":"0","num_feature":"15","num_nodes":"7","size_leaf_vector":"1"}},{"base_weights":[-1.6782423E-2,2.1963647E-1,-3.1416023E-1,4.8259094E-1,-2.0607902E-2,-6.1098684E-2,3.506963E-3,5.957367E-2,1.4672287E-2],"categories":[],"categories_nodes":[],"categories_segments":[],"categories_sizes":[],"default_left":[0,0,0,0,0,0,0,0,0],"id":47,"left_children":[1,3,5,7,-1,-1,-1,-1,-1],"loss_changes":[5.808851E-1,6.193955E-1,3.9835253E-1,3.3075333E-2,0E0,0E0,0E0,0E0,0E0],"parents":[2147483647,0,0,1,1,2,2,3,3],"right_children":[2,4,6,8,-1,-1,-1,-1,-1],"split_conditions":[1.0581651E-1,7.465526E-1,6.434966E-1,4.770354E-1,-2.0607902E-2,-6.1098684E-2,3.506963E-3,5.957367E-2,1.4672287E-2],"split_indices":[6,14,5,13,0,0,0,0,0],"split_type":[0,0,0,0,0,0,0,0,0],"sum_hessian":[6.28083E0,3.6446848E0,2.636145E0,2.1704493E0,1.4742354E0,1.0198234E0,1.6163217E0,1.0447698E0,1.1256796E0],"tree_param":{"num_deleted":"0","num_feature":"15","num_nodes":"9","size_leaf_vector":"1"}},{"base_weights":[-1.5860882E-2,-2.3534384E-1,3.0213827E-1,-4.3522412E-1,2.5882402E-2,5.156988E-2,-9.395823E-4,-1.0697546E-2,-6.0642827E-2],"categories":[],"categories_nodes":[],"categories_segments":[],"categories_sizes":[],"default_left":[0,0,0,0,0,0,0,0,0],"id":48,"left_children":[1,3,5,7,-1,-1,-1,-1,-1],"loss_changes":[5.725985E-1,5.880692E-1,2.291865E-1,1.4867586E-1,0E0,0E0,0E0,0E0,0E0],"parents":[2147483647,0,0,1,1,2,2,3,3],"right_children":[2,4,6,8,-1,-1,-1,-1,-1],"split_conditions":[-2.3087563E-1,1.2724528E0,9.8818517E-1,3.7791458E-1,2.5882402E-2,5.156988E-2,-9.395823E-4,-1.0697546E-2,-6.0642827E-2],"split_indices":[8,4,0,13,0,0,0,0,0],"split_type":[0,0,0,0,0,0,0,0,0],"sum_hessian":[6.1851754E0,3.813217E0,2.3719585E0,2.7999685E0,1.0132483E0,1.0184474E0,1.3535112E0,1.5167516E0,1.283217E0],"tree_param":{"num_deleted":"0","num_feature":"15","num_nodes":"9","size_leaf_vector":"1"}},{"base_weights":[-1.3887735E-2,1.5473738E-1,-4.3887768E-2,4.513207E-2,-1.1990147E-1,-5.4373562E-2,3.3264853E-2],"categories":[],"categories_nodes":[],"categories_segments":[],"categories_sizes":[],"default_left":[0,0,0,0,0,0,0],"id":49,"left_children":[1,3,-1,-1,5,-1,-1],"loss_changes":[5.7422775E-1,5.263413E-1,0E0,0E0,9.0977794E-1,0E0,0E0],"parents":[2147483647,0,0,1,1,4,4],"right_children":[2,4,-1,-1,6,-1,-1],"split_conditions":[7.4100035E-1,-2.4910349E-1,-4.3887768E-2,4.513207E-2,6.222739E-1,-5.4373562E-2,3.3264853E-2],"split_indices":[2,4,0,0,4,0,0],"split_type":[0,0,0,0,0,0,0],"sum_hessian":[6.065152E0,4.7975216E0,1.2676303E0,1.9973034E0,2.8002183E0,1.341938E0,1.4582803E0],"tree_param":{"num_deleted":"0","num_feature":"15","num_nodes":"7","size_leaf_vector":"1"}},{"base_weights":[-1.570703E-2,2.3313564E-1,-2.9175535E-1,4.9776748E-2,-1.8170258E-2,-5.613575E-2,6.639012E-3],"categories":[],"categories_nodes":[],"categories_segments":[],"categories_sizes":[],"default_left":[0,0,0,0,0,0,0],"id":50,"left_children":[1,3,5,-1,-1,-1,-1],"loss_changes":[5.446087E-1,5.520294E-1,3.977502E-1,0E0,0E0,0E0,0E0],"parents":[2147483647,0,0,1,1,2,2],"right_children":[2,4,6,-1,-1,-1,-1],"split_conditions":[-3.6564473E-2,7.465526E-1,-2.3087563E-1,4.9776748E-2,-1.8170258E-2,-5.613575E-2,6.639012E-3],"split_indices":[6,14,8,0,0,0,0],"split_type":[0,0,0,0,0,0,0],"sum_hessian":[5.938012E0,3.204648E0,2.7333639E0,1.8344903E0,1.3701578E0,1.2357354E0,1.4976286E0],"tree_param":{"num_deleted":"0","num_feature":"15","num_nodes":"7","size_leaf_vector":"1"}},{"base_weights":[-1.7042844E-2,-2.289339E-1,2.8620344E-1,-4.491724E-2,1.485535E-2,7.0905397E-3,3.5299167E-2],"categories":[],"categories_nodes":[],"categories_segments":[],"categories_sizes":[],"default_left":[0,0,0,0,0,0,0],"id":51,"left_children":[1,3,5,-1,-1,-1,-1],"loss_changes":[5.0519025E-1,4.477932E-1,2.1832615E-2,0E0,0E0,0E0,0E0],"parents":[2147483647,0,0,1,1,2,2],"right_children":[2,4,6,-1,-1,-1,-1],"split_conditions":[-2.3087563E-1,5.0182396E-1,-8.300665E-1,-4.491724E-2,1.485535E-2,7.0905397E-3,3.5299167E-2],"split_indices":[8,4,4,0,0,0,0],"split_type":[0,0,0,0,0,0,0],"sum_hessian":[5.842538E0,3.5835888E0,2.2589493E0,2.1432476E0,1.4403411E0,1.0229665E0,1.2359829E0],"tree_param":{"num_deleted":"0","num_feature":"15","num_nodes":"7","size_leaf_vector":"1"}},{"base_weights":[-1.382508E-2,2.2733934E-1,-2.8081056E-1,4.787431E-2,-1.6993135E-2,5.383362E-3,-5.501753E-2],"categories":[],"categories_nodes":[],"categories_segments":[],"categories_sizes":[],"default_left":[0,0,0,0,0,0,0],"id":52,"left_children":[1,3,5,-1,-1,-1,-1],"loss_changes":[4.9886647E-1,4.9108946E-1,3.589879E-1,0E0,0E0,0E0,0E0],"parents":[2147483647,0,0,1,1,2,2],"right_children":[2,4,6,-1,-1,-1,-1],"split_conditions":[-3.6564473E-2,7.465526E-1,-7.1905917E-1,4.787431E-2,-1.6993135E-2,5.383362E-3,-5.501753E-2],"split_indices":[6,14,4,0,0,0,0],"split_type":[0,0,0,0,0,0,0],"sum_hessian":[5.7564025E0,3.1024742E0,2.653928E0,1.7744645E0,1.3280097E0,1.5403842E0,1.113544E0],"tree_param":{"num_deleted":"0","num_feature":"15","num_nodes":"7","size_leaf_vector":"1"}},{"base_weights":[-1.5429775E-2,1.4346257E-1,-4.101886E-2,4.3342147E-2,-1.2565966E-1,-5.135718E-2,2.9727096E-2],"categories":[],"categories_nodes":[],"categories_segments":[],"categories_sizes":[],"default_left":[0,0,0,0,0,0,0],"id":53,"left_children":[1,3,-1,-1,5,-1,-1],"loss_changes":[4.7796953E-1,4.840595E-1,0E0,0E0,7.4827856E-1,0E0,0E0],"parents":[2147483647,0,0,1,1,4,4],"right_children":[2,4,-1,-1,6,-1,-1],"split_conditions":[7.4100035E-1,-2.4910349E-1,-4.101886E-2,4.3342147E-2,6.222739E-1,-5.135718E-2,2.9727096E-2],"split_indices":[2,4,0,0,4,0,0],"split_type":[0,0,0,0,0,0,0],"sum_hessian":[5.6820006E0,4.5052123E0,1.1767882E0,1.8747791E0,2.6304333E0,1.2602316E0,1.3702018E0],"tree_param":{"num_deleted":"0","num_feature":"15","num_nodes":"7","size_leaf_vector":"1"}},{"base_weights":[-1.7151525E-2,-2.2294521E-1,2.7400693E-1,-4.274092E-2,1.2882704E-2,7.241595E-3,3.3592507E-2],"categories":[],"categories_nodes":[],"categories_segments":[],"categories_sizes":[],"default_left":[0,0,0,0,0,0,0],"id":54,"left_children":[1,3,5,-1,-1,-1,-1],"loss_changes":[4.5485812E-1,3.7165183E-1,1.52428E-2,0E0,0E0,0E0,0E0],"parents":[2147483647,0,0,1,1,2,2],"right_children":[2,4,6,-1,-1,-1,-1],"split_conditions":[-2.3087563E-1,5.0182396E-1,-8.1683373E-1,-4.274092E-2,1.2882704E-2,7.241595E-3,3.3592507E-2],"split_indices":[8,4,4,0,0,0,0],"split_type":[0,0,0,0,0,0,0],"sum_hessian":[5.571745E0,3.4016833E0,2.1700613E0,2.0152965E0,1.3863869E0,1.0196998E0,1.1503615E0],"tree_param":{"num_deleted":"0","num_feature":"15","num_nodes":"7","size_leaf_vector":"1"}},{"base_weights":[-1.4028163E-2,2.2059923E-1,-2.6958007E-1,4.5491405E-2,-1.5385494E-2,5.234952E-3,-5.285501E-2],"categories":[],"categories_nodes":[],"categories_segments":[],"categories_sizes":[],"default_left":[0,0,0,0,0,0,0],"id":55,"left_children":[1,3,5,-1,-1,-1,-1],"loss_changes":[4.4898093E-1,4.154011E-1,3.2442594E-1,0E0,0E0,0E0,0E0],"parents":[2147483647,0,0,1,1,2,2],"right_children":[2,4,6,-1,-1,-1,-1],"split_conditions":[-3.6564473E-2,7.465526E-1,-7.1905917E-1,4.5491405E-2,-1.5385494E-2,5.234952E-3,-5.285501E-2],"split_indices":[6,14,4,0,0,0,0],"split_type":[0,0,0,0,0,0,0],"sum_hessian":[5.4962506E0,2.9367416E0,2.559509E0,1.6742233E0,1.2625182E0,1.4967415E0,1.0627674E0],"tree_param":{"num_deleted":"0","num_feature":"15","num_nodes":"7","size_leaf_vector":"1"}},{"base_weights":[-1.5521596E-2,1.378488E-1,-3.9096158E-2,-1.03955716E-1,4.4768635E-2,-3.1681627E-2,2.3544228E-2],"categories":[],"categories_nodes":[],"categories_segments":[],"categories_sizes":[],"default_left":[0,0,0,0,0,0,0],"id":56,"left_children":[1,3,-1,5,-1,-1,-1],"loss_changes":[4.2411473E-1,4.439234E-1,0E0,3.484472E-1,0E0,0E0,0E0],"parents":[2147483647,0,0,1,1,3,3],"right_children":[2,4,-1,6,-1,-1,-1],"split_conditions":[7.4100035E-1,-2.3087563E-1,-3.9096158E-2,9.412508E-1,4.4768635E-2,-3.1681627E-2,2.3544228E-2],"split_indices":[2,8,0,4,0,0,0],"split_type":[0,0,0,0,0,0,0],"sum_hessian":[5.429529E0,4.3041015E0,1.1254277E0,2.7906759E0,1.5134258E0,1.7559373E0,1.0347384E0],"tree_param":{"num_deleted":"0","num_feature":"15","num_nodes":"7","size_leaf_vector":"1"}},{"base_weights":[-1.4536979E-2,2.0929761E-1,-2.5748783E-1,4.337514E-2,-1.4890197E-2,5.2996166E-3,-5.0897647E-2],"categories":[],"categories_nodes":[],"categories_segments":[],"categories_sizes":[],"default_left":[0,0,0,0,0,0,0],"id":57,"left_children":[1,3,5,-1,-1,-1,-1],"loss_changes":[3.9829037E-1,3.7395033E-1,2.9911315E-1,0E0,0E0,0E0,0E0],"parents":[2147483647,0,0,1,1,2,2],"right_children":[2,4,6,-1,-1,-1,-1],"split_conditions":[-3.6564473E-2,7.465526E-1,-7.1905917E-1,4.337514E-2,-1.4890197E-2,5.2996166E-3,-5.0897647E-2],"split_indices":[6,14,4,0,0,0,0],"split_type":[0,0,0,0,0,0,0],"sum_hessian":[5.333094E0,2.847846E0,2.4852483E0,1.6211106E0,1.2267354E0,1.4653814E0,1.0198671E0],"tree_param":{"num_deleted":"0","num_feature":"15","num_nodes":"7","size_leaf_vector":"1"}},{"base_weights":[-1.5976569E-2,-2.4187087E-1,2.1659313E-1,-3.9067477E-2,7.6494575E-3,5.2431595E-2,-1.0326951E-2],"categories":[],"categories_nodes":[],"categories_segments":[],"categories_sizes":[],"default_left":[0,0,0,0,0,0,0],"id":58,"left_children":[1,3,5,-1,-1,-1,-1],"loss_changes":[3.819264E-1,2.0300825E-1,4.102825E-1,0E0,0E0,0E0,0E0],"parents":[2147483647,0,0,1,1,2,2],"right_children":[2,4,6,-1,-1,-1,-1],"split_conditions":[-3.7864226E-1,9.412508E-1,7.6709425E-1,-3.9067477E-2,7.6494575E-3,5.2431595E-2,-1.0326951E-2],"split_indices":[8,4,0,0,0,0,0],"split_type":[0,0,0,0,0,0,0],"sum_hessian":[5.2726088E0,2.6544023E0,2.6182065E0,1.6541338E0,1.0002685E0,1.0086485E0,1.609558E0],"tree_param":{"num_deleted":"0","num_feature":"15","num_nodes":"7","size_leaf_vector":"1"}},{"base_weights":[-1.2784915E-2,1.3371152E-1,-3.6575947E-2,4.1680712E-2,-1.3254814E-1,-4.7718443E-2,2.4940187E-2],"categories":[],"categories_nodes":[],"categories_segments":[],"categories_sizes":[],"default_left":[0,0,0,0,0,0,0],"id":59,"left_children":[1,3,-1,-1,5,-1,-1],"loss_changes":[3.6866403E-1,4.3984398E-1,0E0,0E0,5.649945E-1,0E0,0E0],"parents":[2147483647,0,0,1,1,4,4],"right_children":[2,4,-1,-1,6,-1,-1],"split_conditions":[7.4100035E-1,-2.4910349E-1,-3.6575947E-2,4.1680712E-2,6.222739E-1,-4.7718443E-2,2.4940187E-2],"split_indices":[2,4,0,0,4,0,0],"split_type":[0,0,0,0,0,0,0],"sum_hessian":[5.1837316E0,4.1023173E0,1.0814145E0,1.7142534E0,2.388064E0,1.1242802E0,1.2637837E0],"tree_param":{"num_deleted":"0","num_feature":"15","num_nodes":"7","size_leaf_vector":"1"}},{"base_weights":[-1.4646042E-2,-2.0397124E-1,2.4877435E-2,4.224248E-2,-4.8229855E-2,-3.1189723E-2,3.812996E-2],"categories":[],"categories_nodes":[],"categories_segments":[],"categories_sizes":[],"default_left":[0,0,0,0,0,0,0],"id":60,"left_children":[1,3,-1,5,-1,-1,-1],"loss_changes":[3.546256E-1,3.0097526E-1,0E0,4.9021322E-1,0E0,0E0,0E0],"parents":[2147483647,0,0,1,1,3,3],"right_children":[2,4,-1,6,-1,-1,-1],"split_conditions":[-2.3087563E-1,-8.033073E-2,2.4877435E-2,-2.4627055E-1,-4.8229855E-2,-3.1189723E-2,3.812996E-2],"split_indices":[8,6,0,6,0,0,0],"split_type":[0,0,0,0,0,0,0],"sum_hessian":[5.093241E0,3.094702E0,1.998539E0,2.0921621E0,1.00254E0,1.062501E0,1.029661E0],"tree_param":{"num_deleted":"0","num_feature":"15","num_nodes":"7","size_leaf_vector":"1"}},{"base_weights":[-1.621164E-2,1.9631195E-1,-2.4179043E-1,4.0125884E-2,-1.351348E-2,-1.0748457E-3,-3.8836356E-2],"categories":[],"categories_nodes":[],"categories_segments":[],"categories_sizes":[],"default_left":[0,0,0,0,0,0,0],"id":61,"left_children":[1,3,5,-1,-1,-1,-1],"loss_changes":[3.354409E-1,3.0181447E-1,1.09679446E-1,0E0,0E0,0E0,0E0],"parents":[2147483647,0,0,1,1,2,2],"right_children":[2,4,6,-1,-1,-1,-1],"split_conditions":[-3.6564473E-2,7.465526E-1,-1.208545E0,4.0125884E-2,-1.351348E-2,-1.0748457E-3,-3.8836356E-2],"split_indices":[6,14,14,0,0,0,0],"split_type":[0,0,0,0,0,0,0],"sum_hessian":[5.006877E0,2.644843E0,2.3620338E0,1.5041429E0,1.1407003E0,1.3334535E0,1.0285802E0],"tree_param":{"num_deleted":"0","num_feature":"15","num_nodes":"7","size_leaf_vector":"1"}},{"base_weights":[-1.690183E-2,-2.6378238E-1,1.7899129E-1,-3.18693E-2,-7.72863E-3,4.6846602E-2,-9.745562E-3],"categories":[],"categories_nodes":[],"categories_segments":[],"categories_sizes":[],"default_left":[0,0,0,0,0,0,0],"id":62,"left_children":[1,3,5,-1,-1,-1,-1],"loss_changes":[3.3574274E-1,6.5391213E-3,3.5952994E-1,0E0,0E0,0E0,0E0],"parents":[2147483647,0,0,1,1,2,2],"right_children":[2,4,6,-1,-1,-1,-1],"split_conditions":[-4.2354482E-1,1.6754952E-1,1.2206788E-2,-3.18693E-2,-7.72863E-3,4.6846602E-2,-9.745562E-3],"split_indices":[8,4,2,0,0,0,0],"split_type":[0,0,0,0,0,0,0],"sum_hessian":[4.9659815E0,2.0437357E0,2.922246E0,1.0312546E0,1.0124811E0,1.0881839E0,1.8340622E0],"tree_param":{"num_deleted":"0","num_feature":"15","num_nodes":"7","size_leaf_vector":"1"}},{"base_weights":[-1.5705056E-2,-2.2797987E-1,1.9992648E-1,-3.4583725E-2,2.8805751E-3,4.609628E-2,-9.697856E-3],"categories":[],"categories_nodes":[],"categories_segments":[],"categories_sizes":[],"default_left":[0,0,0,0,0,0,0],"id":63,"left_children":[1,3,5,-1,-1,-1,-1],"loss_changes":[3.158051E-1,1.14136204E-1,3.1297392E-1,0E0,0E0,0E0,0E0],"parents":[2147483647,0,0,1,1,2,2],"right_children":[2,4,6,-1,-1,-1,-1],"split_conditions":[-3.7864226E-1,5.0182396E-1,9.8818517E-1,-3.4583725E-2,2.8805751E-3,4.609628E-2,-9.697856E-3],"split_indices":[8,4,0,0,0,0,0],"split_type":[0,0,0,0,0,0,0],"sum_hessian":[4.90359E0,2.4421706E0,2.4614193E0,1.4362012E0,1.0059694E0,1.0157878E0,1.4456315E0],"tree_param":{"num_deleted":"0","num_feature":"15","num_nodes":"7","size_leaf_vector":"1"}},{"base_weights":[-1.3437585E-2,1.2496952E-1,-3.366892E-2,3.9653867E-2,-1.3354573E-1,-4.5088474E-2,2.2173101E-2],"categories":[],"categories_nodes":[],"categories_segments":[],"categories_sizes":[],"default_left":[0,0,0,0,0,0,0],"id":64,"left_children":[1,3,-1,-1,5,-1,-1],"loss_changes":[3.031746E-1,3.9103106E-1,0E0,0E0,4.6246016E-1,0E0,0E0],"parents":[2147483647,0,0,1,1,4,4],"right_children":[2,4,-1,-1,6,-1,-1],"split_conditions":[7.4100035E-1,-2.4910349E-1,-3.366892E-2,3.9653867E-2,6.222739E-1,-4.5088474E-2,2.2173101E-2],"split_indices":[2,4,0,0,4,0,0],"split_type":[0,0,0,0,0,0,0],"sum_hessian":[4.8358693E0,3.815556E0,1.0203134E0,1.6004168E0,2.2151394E0,1.0278966E0,1.1872426E0],"tree_param":{"num_deleted":"0","num_feature":"15","num_nodes":"7","size_leaf_vector":"1"}},{"base_weights":[-1.5252781E-2,-1.9574217E-1,2.3189547E-2,-3.5050374E-2,1.039809E-2],"categories":[],"categories_nodes":[],"categories_segments":[],"categories_sizes":[],"default_left":[0,0,0,0,0],"id":65,"left_children":[1,3,-1,-1,-1],"loss_changes":[3.022737E-1,2.1597858E-1,0E0,0E0,0E0],"parents":[2147483647,0,0,1,1],"right_children":[2,4,-1,-1,-1],"split_conditions":[-2.3087563E-1,9.412508E-1,2.3189547E-2,-3.5050374E-2,1.039809E-2],"split_indices":[8,4,0,0,0],"split_type":[0,0,0,0,0],"sum_hessian":[4.758699E0,2.8704445E0,1.8882542E0,1.7812656E0,1.0891788E0],"tree_param":{"num_deleted":"0","num_feature":"15","num_nodes":"5","size_leaf_vector":"1"}},{"base_weights":[-1.4167544E-2,1.9217592E-1,-2.263117E-1,3.8970184E-2,-1.3352789E-2,-3.3883218E-2,-1.4102103E-3],"categories":[],"categories_nodes":[],"categories_segments":[],"categories_sizes":[],"default_left":[0,0,0,0,0,0,0],"id":66,"left_children":[1,3,5,-1,-1,-1,-1],"loss_changes":[2.9341587E-1,2.730283E-1,7.340573E-2,0E0,0E0,0E0,0E0],"parents":[2147483647,0,0,1,1,2,2],"right_children":[2,4,6,-1,-1,-1,-1],"split_conditions":[-3.6564473E-2,7.465526E-1,1.1486025E0,3.8970184E-2,-1.3352789E-2,-3.3883218E-2,-1.4102103E-3],"split_indices":[6,14,1,0,0,0,0],"split_type":[0,0,0,0,0,0,0],"sum_hessian":[4.7093487E0,2.4350278E0,2.2743208E0,1.3934604E0,1.0415673E0,1.0963262E0,1.1779946E0],"tree_param":{"num_deleted":"0","num_feature":"15","num_nodes":"7","size_leaf_vector":"1"}},{"base_weights":[-1.4518965E-2,-1.8887605E-1,2.2170406E-2,-3.3577856E-2,9.720288E-3],"categories":[],"categories_nodes":[],"categories_segments":[],"categories_sizes":[],"default_left":[0,0,0,0,0],"id":67,"left_children":[1,3,-1,-1,-1],"loss_changes":[2.755059E-1,1.9248563E-1,0E0,0E0,0E0],"parents":[2147483647,0,0,1,1],"right_children":[2,4,-1,-1,-1],"split_conditions":[-2.3087563E-1,9.412508E-1,2.2170406E-2,-3.3577856E-2,9.720288E-3],"split_indices":[8,4,0,0,0],"split_type":[0,0,0,0,0],"sum_hessian":[4.6724315E0,2.8035524E0,1.8688791E0,1.737575E0,1.0659775E0],"tree_param":{"num_deleted":"0","num_feature":"15","num_nodes":"5","size_leaf_vector":"1"}},{"base_weights":[-1.3530707E-2,1.7896618E-1,-2.3280847E-1,-1.604436E-2,4.0680572E-2,-6.6515207E-3,-2.84414E-2],"categories":[],"categories_nodes":[],"categories_segments":[],"categories_sizes":[],"default_left":[0,0,0,0,0,0,0],"id":68,"left_children":[1,3,5,-1,-1,-1,-1],"loss_changes":[2.7917135E-1,3.4070107E-1,7.385075E-3,0E0,0E0,0E0,0E0],"parents":[2147483647,0,0,1,1,2,2],"right_children":[2,4,6,-1,-1,-1,-1],"split_conditions":[1.0581651E-1,-4.6986896E-1,-8.300665E-1,-1.604436E-2,4.0680572E-2,-6.6515207E-3,-2.84414E-2],"split_indices":[6,8,4,0,0,0,0],"split_type":[0,0,0,0,0,0,0],"sum_hessian":[4.6267447E0,2.561726E0,2.0650187E0,1.1477466E0,1.4139794E0,1.0311536E0,1.0338652E0],"tree_param":{"num_deleted":"0","num_feature":"15","num_nodes":"7","size_leaf_vector":"1"}},{"base_weights":[-1.4094621E-2,1.8003388E-1,-2.114581E-1,-1.1195019E-2,3.627898E-2,-3.1765483E-2,-1.3146742E-3],"categories":[],"categories_nodes":[],"categories_segments":[],"categories_sizes":[],"default_left":[0,0,0,0,0,0,0],"id":69,"left_children":[1,3,5,-1,-1,-1,-1],"loss_changes":[2.5180313E-1,2.195059E-1,6.3764796E-2,0E0,0E0,0E0,0E0],"parents":[2147483647,0,0,1,1,2,2],"right_children":[2,4,6,-1,-1,-1,-1],"split_conditions":[-3.6564473E-2,-4.6986896E-1,1.1486025E0,-1.1195019E-2,3.627898E-2,-3.1765483E-2,-1.3146742E-3],"split_indices":[6,8,1,0,0,0,0],"split_type":[0,0,0,0,0,0,0],"sum_hessian":[4.578489E0,2.3524263E0,2.2260623E0,1.0547365E0,1.2976898E0,1.0578045E0,1.1682578E0],"tree_param":{"num_deleted":"0","num_feature":"15","num_nodes":"7","size_leaf_vector":"1"}},{"base_weights":[-1.4185569E-2,-2.0616104E-1,1.7956708E-1,-2.9617433E-2,-2.8692247E-4,3.984026E-2,-1.2170933E-2],"categories":[],"categories_nodes":[],"categories_segments":[],"categories_sizes":[],"default_left":[0,0,0,0,0,0,0],"id":70,"left_children":[1,3,5,-1,-1,-1,-1],"loss_changes":[2.4309082E-1,5.8592185E-2,2.6551747E-1,0E0,0E0,0E0,0E0],"parents":[2147483647,0,0,1,1,2,2],"right_children":[2,4,6,-1,-1,-1,-1],"split_conditions":[-3.7864226E-1,1.8791097E-1,-2.0725831E-1,-2.9617433E-2,-2.8692247E-4,3.984026E-2,-1.2170933E-2],"split_indices":[8,4,8,0,0,0,0],"split_type":[0,0,0,0,0,0,0],"sum_hessian":[4.540177E0,2.2483788E0,2.291798E0,1.2416917E0,1.006687E0,1.1407902E0,1.1510078E0],"tree_param":{"num_deleted":"0","num_feature":"15","num_nodes":"7","size_leaf_vector":"1"}},{"base_weights":[-1.3247229E-2,1.6997819E-1,-2.2032648E-1,-1.4127078E-2,3.7821654E-2,-6.320936E-3,-2.6849313E-2],"categories":[],"categories_nodes":[],"categories_segments":[],"categories_sizes":[],"default_left":[0,0,0,0,0,0,0],"id":71,"left_children":[1,3,5,-1,-1,-1,-1],"loss_changes":[2.4634895E-1,2.7934593E-1,5.8843195E-3,0E0,0E0,0E0,0E0],"parents":[2147483647,0,0,1,1,2,2],"right_children":[2,4,6,-1,-1,-1,-1],"split_conditions":[1.0581651E-1,-4.6986896E-1,-8.300665E-1,-1.4127078E-2,3.7821654E-2,-6.320936E-3,-2.6849313E-2],"split_indices":[6,8,4,0,0,0,0],"split_type":[0,0,0,0,0,0,0],"sum_hessian":[4.505699E0,2.4855912E0,2.020108E0,1.125269E0,1.3603222E0,1.0165334E0,1.0035745E0],"tree_param":{"num_deleted":"0","num_feature":"15","num_nodes":"7","size_leaf_vector":"1"}},{"base_weights":[-1.3697856E-2,-1.7736086E-1,2.0642346E-2,-3.2561496E-2,1.0258063E-2],"categories":[],"categories_nodes":[],"categories_segments":[],"categories_sizes":[],"default_left":[0,0,0,0,0],"id":72,"left_children":[1,3,-1,-1,-1],"loss_changes":[2.3345187E-1,1.8578646E-1,0E0,0E0,0E0],"parents":[2147483647,0,0,1,1],"right_children":[2,4,-1,-1,-1],"split_conditions":[-2.3087563E-1,9.412508E-1,2.0642346E-2,-3.2561496E-2,1.0258063E-2],"split_indices":[8,4,0,0,0],"split_type":[0,0,0,0,0],"sum_hessian":[4.4638867E0,2.6717012E0,1.7921857E0,1.6400136E0,1.0316877E0],"tree_param":{"num_deleted":"0","num_feature":"15","num_nodes":"5","size_leaf_vector":"1"}},{"base_weights":[-1.2782526E-2,1.6804731E-1,-2.1579705E-2,-1.3101384E-2,3.6642577E-2],"categories":[],"categories_nodes":[],"categories_segments":[],"categories_sizes":[],"default_left":[0,0,0,0,0],"id":73,"left_children":[1,3,-1,-1,-1],"loss_changes":[2.3535319E-1,2.515281E-1,0E0,0E0,0E0],"parents":[2147483647,0,0,1,1],"right_children":[2,4,-1,-1,-1],"split_conditions":[1.0581651E-1,-4.6986896E-1,-2.1579705E-2,-1.3101384E-2,3.6642577E-2],"split_indices":[6,8,0,0,0],"split_type":[0,0,0,0,0],"sum_hessian":[4.4231324E0,2.4304833E0,1.9926488E0,1.1046973E0,1.3257861E0],"tree_param":{"num_deleted":"0","num_feature":"15","num_nodes":"5","size_leaf_vector":"1"}},{"base_weights":[-1.1161755E-2,-1.6890305E-1,1.9928353E-2,-3.1391848E-2,1.0076143E-2],"categories":[],"categories_nodes":[],"categories_segments":[],"categories_sizes":[],"default_left":[0,0,0,0,0],"id":74,"left_children":[1,3,-1,-1,-1],"loss_changes":[2.1248446E-1,1.7320421E-1,0E0,0E0,0E0],"parents":[2147483647,0,0,1,1],"right_children":[2,4,-1,-1,-1],"split_conditions":[-2.3087563E-1,9.412508E-1,1.9928353E-2,-3.1391848E-2,1.0076143E-2],"split_indices":[8,4,0,0,0],"split_type":[0,0,0,0,0],"sum_hessian":[4.386955E0,2.6202917E0,1.7666633E0,1.5972453E0,1.0230463E0],"tree_param":{"num_deleted":"0","num_feature":"15","num_nodes":"5","size_leaf_vector":"1"}},{"base_weights":[-1.04258405E-2,1.7608212E-1,-1.9794221E-1,-6.333468E-3,3.520738E-2,-2.9773269E-2,-1.1542571E-3],"categories":[],"categories_nodes":[],"categories_segments":[],"categories_sizes":[],"default_left":[0,0,0,0,0,0,0],"id":75,"left_children":[1,3,5,-1,-1,-1,-1],"loss_changes":[2.2193234E-1,1.5759599E-1,5.4935895E-2,0E0,0E0,0E0,0E0],"parents":[2147483647,0,0,1,1,2,2],"right_children":[2,4,6,-1,-1,-1,-1],"split_conditions":[-3.6564473E-2,-2.585267E-1,1.1486025E0,-6.333468E-3,3.520738E-2,-2.9773269E-2,-1.1542571E-3],"split_indices":[6,6,1,0,0,0,0],"split_type":[0,0,0,0,0,0,0],"sum_hessian":[4.349174E0,2.211021E0,2.1381533E0,1.2079152E0,1.0031056E0,1.0035915E0,1.1345618E0],"tree_param":{"num_deleted":"0","num_feature":"15","num_nodes":"7","size_leaf_vector":"1"}},{"base_weights":[-9.80372E-3,1.5991682E-1,-1.9974558E-2,-1.2811157E-2,3.508782E-2],"categories":[],"categories_nodes":[],"categories_segments":[],"categories_sizes":[],"default_left":[0,0,0,0,0],"id":76,"left_children":[1,3,-1,-1,-1],"loss_changes":[2.0361632E-1,2.3018557E-1,0E0,0E0,0E0],"parents":[2147483647,0,0,1,1],"right_children":[2,4,-1,-1,-1],"split_conditions":[1.0581651E-1,-4.6986896E-1,-1.9974558E-2,-1.2811157E-2,3.508782E-2],"split_indices":[6,8,0,0,0],"split_type":[0,0,0,0,0],"sum_hessian":[4.3253555E0,2.3677511E0,1.9576043E0,1.0751771E0,1.292574E0],"tree_param":{"num_deleted":"0","num_feature":"15","num_nodes":"5","size_leaf_vector":"1"}},{"base_weights":[-8.39237E-3,-1.6501375E-1,1.9699436E-2,-3.1121144E-2,8.394045E-3],"categories":[],"categories_nodes":[],"categories_segments":[],"categories_sizes":[],"default_left":[0,0,0,0,0],"id":77,"left_children":[1,3,-1,-1,-1],"loss_changes":[2.0276238E-1,1.5522209E-1,0E0,0E0,0E0],"parents":[2147483647,0,0,1,1],"right_children":[2,4,-1,-1,-1],"split_conditions":[-2.3087563E-1,5.0182396E-1,1.9699436E-2,-3.1121144E-2,8.394045E-3],"split_indices":[8,4,0,0,0],"split_type":[0,0,0,0,0],"sum_hessian":[4.29271E0,2.547011E0,1.7456989E0,1.4471189E0,1.0998919E0],"tree_param":{"num_deleted":"0","num_feature":"15","num_nodes":"5","size_leaf_vector":"1"}},{"base_weights":[-8.227525E-3,1.5736312E-1,-1.9274073E-2,-1.195994E-2,3.3997532E-2],"categories":[],"categories_nodes":[],"categories_segments":[],"categories_sizes":[],"default_left":[0,0,0,0,0],"id":78,"left_children":[1,3,-1,-1,-1],"loss_changes":[1.9095522E-1,2.0863453E-1,0E0,0E0,0E0],"parents":[2147483647,0,0,1,1],"right_children":[2,4,-1,-1,-1],"split_conditions":[1.0581651E-1,-4.6986896E-1,-1.9274073E-2,-1.195994E-2,3.3997532E-2],"split_indices":[6,8,0,0,0],"split_type":[0,0,0,0,0],"sum_hessian":[4.257142E0,2.3211656E0,1.9359765E0,1.059427E0,1.2617385E0],"tree_param":{"num_deleted":"0","num_feature":"15","num_nodes":"5","size_leaf_vector":"1"}},{"base_weights":[-6.8724295E-3,-1.58159E-1,1.902246E-2,-3.0082414E-2,8.213894E-3],"categories":[],"categories_nodes":[],"categories_segments":[],"categories_sizes":[],"default_left":[0,0,0,0,0],"id":79,"left_children":[1,3,-1,-1,-1],"loss_changes":[1.8594882E-1,1.4480832E-1,0E0,0E0,0E0],"parents":[2147483647,0,0,1,1],"right_children":[2,4,-1,-1,-1],"split_conditions":[-2.3087563E-1,5.0182396E-1,1.902246E-2,-3.0082414E-2,8.213894E-3],"split_indices":[8,4,0,0,0],"split_type":[0,0,0,0,0],"sum_hessian":[4.2271247E0,2.5032513E0,1.7238734E0,1.4126687E0,1.0905827E0],"tree_param":{"num_deleted":"0","num_feature":"15","num_nodes":"5","size_leaf_vector":"1"}},{"base_weights":[-6.8157827E-3,-2.417872E-2,1.1720634E-1,3.3315975E-2,-1.2741481E-2],"categories":[],"categories_nodes":[],"categories_segments":[],"categories_sizes":[],"default_left":[0,0,0,0,0],"id":80,"left_children":[1,-1,3,-1,-1],"loss_changes":[1.7970069E-1,0E0,2.5761992E-1,0E0,0E0],"parents":[2147483647,0,0,2,2],"right_children":[2,-1,4,-1,-1],"split_conditions":[-5.1793694E-1,-2.417872E-2,2.9243582E-1,3.3315975E-2,-1.2741481E-2],"split_indices":[8,0,2,0,0],"split_type":[0,0,0,0,0],"sum_hessian":[4.193998E0,1.1208655E0,3.0731325E0,1.4399722E0,1.6331602E0],"tree_param":{"num_deleted":"0","num_feature":"15","num_nodes":"5","size_leaf_vector":"1"}},{"base_weights":[-6.8420614E-3,1.5709464E-1,-1.7529336E-1,-1.1055729E-2,3.420952E-2,-3.763851E-2,1.1210745E-2],"categories":[],"categories_nodes":[],"categories_segments":[],"categories_sizes":[],"default_left":[0,0,0,0,0,0,0],"id":81,"left_children":[1,3,5,-1,-1,-1,-1],"loss_changes":[1.7002413E-1,1.9341236E-1,2.1658447E-1,0E0,0E0,0E0,0E0],"parents":[2147483647,0,0,1,1,2,2],"right_children":[2,4,6,-1,-1,-1,-1],"split_conditions":[-2.4910349E-1,-1.258165E0,1.025802E0,-1.1055729E-2,3.420952E-2,-3.763851E-2,1.1210745E-2],"split_indices":[4,3,4,0,0,0,0],"split_type":[0,0,0,0,0,0,0],"sum_hessian":[4.159684E0,2.142258E0,2.0174263E0,1.0400078E0,1.1022501E0,1.0047761E0,1.0126501E0],"tree_param":{"num_deleted":"0","num_feature":"15","num_nodes":"7","size_leaf_vector":"1"}},{"base_weights":[-6.8644835E-3,-1.5330286E-1,1.8263498E-2,-2.927816E-2,7.894994E-3],"categories":[],"categories_nodes":[],"categories_segments":[],"categories_sizes":[],"default_left":[0,0,0,0,0],"id":82,"left_children":[1,3,-1,-1,-1],"loss_changes":[1.702148E-1,1.3437581E-1,0E0,0E0,0E0],"parents":[2147483647,0,0,1,1],"right_children":[2,4,-1,-1,-1],"split_conditions":[-2.3087563E-1,5.0182396E-1,1.8263498E-2,-2.927816E-2,7.894994E-3],"split_indices":[8,4,0,0,0],"split_type":[0,0,0,0,0],"sum_hessian":[4.124914E0,2.4345741E0,1.6903398E0,1.3582593E0,1.0763147E0],"tree_param":{"num_deleted":"0","num_feature":"15","num_nodes":"5","size_leaf_vector":"1"}},{"base_weights":[-6.8670735E-3,1.6508807E-1,-1.7589642E-1,3.9537456E-3,2.0944966E-2,-2.4192138E-2,-2.2985956E-3],"categories":[],"categories_nodes":[],"categories_segments":[],"categories_sizes":[],"default_left":[0,0,0,0,0,0,0],"id":83,"left_children":[1,3,5,-1,-1,-1,-1],"loss_changes":[1.7710935E-1,8.657187E-3,2.526407E-2,0E0,0E0,0E0,0E0],"parents":[2147483647,0,0,1,1,2,2],"right_children":[2,4,6,-1,-1,-1,-1],"split_conditions":[-3.6564473E-2,1.06676824E-1,1.3828013E0,3.9537456E-3,2.0944966E-2,-2.4192138E-2,-2.2985956E-3],"split_indices":[6,4,0,0,0,0,0],"split_type":[0,0,0,0,0,0,0],"sum_hessian":[4.0943947E0,2.04119E0,2.0532045E0,1.0267037E0,1.0144863E0,1.0274518E0,1.0257529E0],"tree_param":{"num_deleted":"0","num_feature":"15","num_nodes":"7","size_leaf_vector":"1"}},{"base_weights":[-6.5157847E-3,-2.321323E-2,1.128115E-1,3.181197E-2,-1.1763391E-2],"categories":[],"categories_nodes":[],"categories_segments":[],"categories_sizes":[],"default_left":[0,0,0,0,0],"id":84,"left_children":[1,-1,3,-1,-1],"loss_changes":[1.6299008E-1,0E0,2.265075E-1,0E0,0E0],"parents":[2147483647,0,0,2,2],"right_children":[2,-1,4,-1,-1],"split_conditions":[-5.1793694E-1,-2.321323E-2,2.9243582E-1,3.181197E-2,-1.1763391E-2],"split_indices":[8,0,2,0,0],"split_type":[0,0,0,0,0],"sum_hessian":[4.0814147E0,1.0848697E0,2.9965448E0,1.3835014E0,1.6130434E0],"tree_param":{"num_deleted":"0","num_feature":"15","num_nodes":"5","size_leaf_vector":"1"}},{"base_weights":[-6.499156E-3,1.5383077E-1,-1.7272005E-2,-1.0046161E-2,3.291796E-2],"categories":[],"categories_nodes":[],"categories_segments":[],"categories_sizes":[],"default_left":[0,0,0,0,0],"id":85,"left_children":[1,3,-1,-1,-1],"loss_changes":[1.6116846E-1,1.7128815E-1,0E0,0E0,0E0],"parents":[2147483647,0,0,1,1],"right_children":[2,4,-1,-1,-1],"split_conditions":[-2.4910349E-1,-1.258165E0,-1.7272005E-2,-1.0046161E-2,3.291796E-2],"split_indices":[4,3,0,0,0],"split_type":[0,0,0,0,0],"sum_hessian":[4.050577E0,2.099767E0,1.9508101E0,1.0312766E0,1.0684904E0],"tree_param":{"num_deleted":"0","num_feature":"15","num_nodes":"5","size_leaf_vector":"1"}},{"base_weights":[-4.731326E-3,-1.4681411E-1,1.770869E-2,-2.8764555E-2,8.364596E-3],"categories":[],"categories_nodes":[],"categories_segments":[],"categories_sizes":[],"default_left":[0,0,0,0,0],"id":86,"left_children":[1,3,-1,-1,-1],"loss_changes":[1.5595315E-1,1.3345505E-1,0E0,0E0,0E0],"parents":[2147483647,0,0,1,1],"right_children":[2,4,-1,-1,-1],"split_conditions":[-2.3087563E-1,5.0182396E-1,1.770869E-2,-2.8764555E-2,8.364596E-3],"split_indices":[8,4,0,0,0],"split_type":[0,0,0,0,0],"sum_hessian":[4.0305066E0,2.3705506E0,1.6599562E0,1.3173794E0,1.0531712E0],"tree_param":{"num_deleted":"0","num_feature":"15","num_nodes":"5","size_leaf_vector":"1"}},{"base_weights":[-4.858622E-3,1.596429E-2,-1.6615115E-2],"categories":[],"categories_nodes":[],"categories_segments":[],"categories_sizes":[],"default_left":[0,0,0],"id":87,"left_children":[1,-1,-1],"loss_changes":[1.5923584E-1,0E0,0E0],"parents":[2147483647,0,0],"right_children":[2,-1,-1],"split_conditions":[-3.6564473E-2,1.596429E-2,-1.6615115E-2],"split_indices":[6,0,0],"split_type":[0,0,0],"sum_hessian":[4.0017586E0,1.9862347E0,2.015524E0],"tree_param":{"num_deleted":"0","num_feature":"15","num_nodes":"3","size_leaf_vector":"1"}},{"base_weights":[-4.5138234E-3,1.5263961E-1,-1.6803628E-2,-9.215597E-3,3.1991247E-2],"categories":[],"categories_nodes":[],"categories_segments":[],"categories_sizes":[],"default_left":[0,0,0,0,0],"id":88,"left_children":[1,3,-1,-1,-1],"loss_changes":[1.5395518E-1,1.5519117E-1,0E0,0E0,0E0],"parents":[2147483647,0,0,1,1],"right_children":[2,4,-1,-1,-1],"split_conditions":[-2.4910349E-1,-1.258165E0,-1.6803628E-2,-9.215597E-3,3.1991247E-2],"split_indices":[4,3,0,0,0],"split_type":[0,0,0,0,0],"sum_hessian":[3.9928246E0,2.0700006E0,1.9228239E0,1.0225772E0,1.0474235E0],"tree_param":{"num_deleted":"0","num_feature":"15","num_nodes":"5","size_leaf_vector":"1"}},{"base_weights":[-2.851117E-3,-1.4140473E-1,1.7321298E-2,-2.8115107E-2,8.41234E-3],"categories":[],"categories_nodes":[],"categories_segments":[],"categories_sizes":[],"default_left":[0,0,0,0,0],"id":89,"left_children":[1,3,-1,-1,-1],"loss_changes":[1.4583243E-1,1.2873162E-1,0E0,0E0,0E0],"parents":[2147483647,0,0,1,1],"right_children":[2,4,-1,-1,-1],"split_conditions":[-2.3087563E-1,5.0182396E-1,1.7321298E-2,-2.8115107E-2,8.41234E-3],"split_indices":[8,4,0,0,0],"split_type":[0,0,0,0,0],"sum_hessian":[3.974081E0,2.33411E0,1.6399709E0,1.2888515E0,1.0452585E0],"tree_param":{"num_deleted":"0","num_feature":"15","num_nodes":"5","size_leaf_vector":"1"}},{"base_weights":[-3.0968874E-3,1.574193E-2,-1.605959E-2],"categories":[],"categories_nodes":[],"categories_segments":[],"categories_sizes":[],"default_left":[0,0,0],"id":90,"left_children":[1,-1,-1],"loss_changes":[1.5034145E-1,0E0,0E0],"parents":[2147483647,0,0],"right_children":[2,-1,-1],"split_conditions":[-3.6564473E-2,1.574193E-2,-1.605959E-2],"split_indices":[6,0,0],"split_type":[0,0,0],"sum_hessian":[3.9467921E0,1.9549242E0,1.9918679E0],"tree_param":{"num_deleted":"0","num_feature":"15","num_nodes":"3","size_leaf_vector":"1"}},{"base_weights":[-2.8581202E-3,1.5127501E-1,-1.6377825E-2,-8.459588E-3,3.1102005E-2],"categories":[],"categories_nodes":[],"categories_segments":[],"categories_sizes":[],"default_left":[0,0,0,0,0],"id":91,"left_children":[1,3,-1,-1,-1],"loss_changes":[1.4726298E-1,1.409398E-1,0E0,0E0,0E0],"parents":[2147483647,0,0,1,1],"right_children":[2,4,-1,-1,-1],"split_conditions":[-2.4910349E-1,-1.258165E0,-1.6377825E-2,-8.459588E-3,3.1102005E-2],"split_indices":[4,3,0,0,0],"split_type":[0,0,0,0,0],"sum_hessian":[3.9383872E0,2.042229E0,1.8961583E0,1.0145828E0,1.0276462E0],"tree_param":{"num_deleted":"0","num_feature":"15","num_nodes":"5","size_leaf_vector":"1"}},{"base_weights":[-1.2845078E-3,-1.3647228E-1,1.693976E-2,-2.7501509E-2,8.4309075E-3],"categories":[],"categories_nodes":[],"categories_segments":[],"categories_sizes":[],"default_left":[0,0,0,0,0],"id":92,"left_children":[1,3,-1,-1,-1],"loss_changes":[1.3666211E-1,1.24118134E-1,0E0,0E0,0E0],"parents":[2147483647,0,0,1,1],"right_children":[2,4,-1,-1,-1],"split_conditions":[-2.3087563E-1,5.0182396E-1,1.693976E-2,-2.7501509E-2,8.4309075E-3],"split_indices":[8,4,0,0,0],"split_type":[0,0,0,0,0],"sum_hessian":[3.9208367E0,2.2997572E0,1.6210794E0,1.2621188E0,1.0376383E0],"tree_param":{"num_deleted":"0","num_feature":"15","num_nodes":"5","size_leaf_vector":"1"}},{"base_weights":[-1.6303654E-3,1.4761148E-1,-1.6407877E-2,-9.09629E-3,3.0787835E-2],"categories":[],"categories_nodes":[],"categories_segments":[],"categories_sizes":[],"default_left":[0,0,0,0,0],"id":93,"left_children":[1,3,-1,-1,-1],"loss_changes":[1.428922E-1,1.4567788E-1,0E0,0E0,0E0],"parents":[2147483647,0,0,1,1],"right_children":[2,4,-1,-1,-1],"split_conditions":[1.0581651E-1,-2.4627055E-1,-1.6407877E-2,-9.09629E-3,3.0787835E-2],"split_indices":[6,6,0,0,0],"split_type":[0,0,0,0,0],"sum_hessian":[3.8948934E0,2.077563E0,1.8173304E0,1.008593E0,1.0689701E0],"tree_param":{"num_deleted":"0","num_feature":"15","num_nodes":"5","size_leaf_vector":"1"}},{"base_weights":[-3.6601405E-4,1.4851166E-1,-1.5678441E-2,-7.7273645E-3,3.003856E-2],"categories":[],"categories_nodes":[],"categories_segments":[],"categories_sizes":[],"default_left":[0,0,0,0,0],"id":94,"left_children":[1,3,-1,-1,-1],"loss_changes":[1.3690317E-1,1.2654123E-1,0E0,0E0,0E0],"parents":[2147483647,0,0,1,1],"right_children":[2,4,-1,-1,-1],"split_conditions":[-2.4910349E-1,-1.258165E0,-1.5678441E-2,-7.7273645E-3,3.003856E-2],"split_indices":[4,3,0,0,0],"split_type":[0,0,0,0,0],"sum_hessian":[3.8790243E0,2.0133162E0,1.8657081E0,1.0071793E0,1.0061369E0],"tree_param":{"num_deleted":"0","num_feature":"15","num_nodes":"5","size_leaf_vector":"1"}},{"base_weights":[1.0558838E-3,1.5228975E-2,-1.4797705E-2],"categories":[],"categories_nodes":[],"categories_segments":[],"categories_sizes":[],"default_left":[0,0,0],"id":95,"left_children":[1,-1,-1],"loss_changes":[1.3213983E-1,0E0,0E0],"parents":[2147483647,0,0],"right_children":[2,-1,-1],"split_conditions":[-3.6564473E-2,1.5228975E-2,-1.4797705E-2],"split_indices":[6,0,0],"split_type":[0,0,0],"sum_hessian":[3.8629174E0,1.9064549E0,1.9564625E0],"tree_param":{"num_deleted":"0","num_feature":"15","num_nodes":"3","size_leaf_vector":"1"}},{"base_weights":[1.0396262E-3,-1.3777208E-1,1.7357515E-2,-2.726495E-2,7.875427E-3],"categories":[],"categories_nodes":[],"categories_segments":[],"categories_sizes":[],"default_left":[0,0,0,0,0],"id":96,"left_children":[1,3,-1,-1,-1],"loss_changes":[1.4019792E-1,1.1633144E-1,0E0,0E0,0E0],"parents":[2147483647,0,0,1,1],"right_children":[2,4,-1,-1,-1],"split_conditions":[-2.3087563E-1,5.0182396E-1,1.7357515E-2,-2.726495E-2,7.875427E-3],"split_indices":[8,4,0,0,0],"split_type":[0,0,0,0,0],"sum_hessian":[3.8552961E0,2.2480977E0,1.6071985E0,1.2255111E0,1.0225867E0],"tree_param":{"num_deleted":"0","num_feature":"15","num_nodes":"5","size_leaf_vector":"1"}},{"base_weights":[4.8898417E-4,-2.065115E-2,1.0921511E-1,-1.4629612E-2,2.5702236E-2],"categories":[],"categories_nodes":[],"categories_segments":[],"categories_sizes":[],"default_left":[0,0,0,0,0],"id":97,"left_children":[1,-1,3,-1,-1],"loss_changes":[1.3126129E-1,0E0,1.8190025E-1,0E0,0E0],"parents":[2147483647,0,0,2,2],"right_children":[2,-1,4,-1,-1],"split_conditions":[-5.1793694E-1,-2.065115E-2,-1.1099771E0,-1.4629612E-2,2.5702236E-2],"split_indices":[8,0,13,0,0],"split_type":[0,0,0,0,0],"sum_hessian":[3.8300617E0,1.0092351E0,2.8208265E0,1.0375167E0,1.7833097E0],"tree_param":{"num_deleted":"0","num_feature":"15","num_nodes":"5","size_leaf_vector":"1"}},{"base_weights":[-1.5366741E-3,1.4503966E-2,-1.5479619E-2],"categories":[],"categories_nodes":[],"categories_segments":[],"categories_sizes":[],"default_left":[0,0,0],"id":98,"left_children":[1,-1,-1],"loss_changes":[1.3039948E-1,0E0,0E0],"parents":[2147483647,0,0],"right_children":[2,-1,-1],"split_conditions":[-2.4910349E-1,1.4503966E-2,-1.5479619E-2],"split_indices":[4,0,0],"split_type":[0,0,0],"sum_hessian":[3.8053262E0,1.9724869E0,1.8328395E0],"tree_param":{"num_deleted":"0","num_feature":"15","num_nodes":"3","size_leaf_vector":"1"}},{"base_weights":[-1.5920819E-3,1.4850243E-2,-1.4810164E-2],"categories":[],"categories_nodes":[],"categories_segments":[],"categories_sizes":[],"default_left":[0,0,0],"id":99,"left_children":[1,-1,-1],"loss_changes":[1.2745117E-1,0E0,0E0],"parents":[2147483647,0,0],"right_children":[2,-1,-1],"split_conditions":[-3.6564473E-2,1.4850243E-2,-1.4810164E-2],"split_indices":[6,0,0],"split_type":[0,0,0],"sum_hessian":[3.7956517E0,1.8681686E0,1.9274831E0],"tree_param":{"num_deleted":"0","num_feature":"15","num_nodes":"3","size_leaf_vector":"1"}}]},"name":"gbtree"},"learner_model_param":{"base_score":"[5E-1]","boost_from_average":"1","num_class":"0","num_feature":"15","num_target":"1"},"objective":{"name":"binary:logistic","reg_loss_param":{"scale_pos_weight":"1"}}},"version":[3,2,0]}